[ {
  "layerIndex" : 1,
  "rows" : 100,
  "cols" : 784,
  "w" : [ 0.10509095557680034, -0.1743359346408289, 0.7312340838268921, 0.07940720458269365, 0.0013839039038660104, -1.0742718232773794, 1.224705562201161, -1.135637291731135, -0.44897358421063605, -1.5534146246005058, -0.49759683708601454, -0.2841421007906074, -1.021673033719009, -1.244461175787185, -0.04379489198662066, 0.6873750778595472, -1.0163897339589074, 0.41331193451482395, 0.24269652906504519, 1.2953038816988574, -2.4835202795181495, 1.1091398905355083, 0.34714356335097435, 1.4889213255915632, 0.2755878379281707, -0.4486349028327031, 0.0372600932567839, -0.4735546024225011, -0.4393061338993238, -0.8915588333221958, 0.5771781516708558, 0.13504644421317358, 0.4853316471929108, -0.736296444063679, -1.5147219022742244, 1.3404049350059621, -0.47092976833831224, 0.42859208639219526, 0.28669695854433375, -1.5102650409751877, 0.7470412047373788, -0.8273321814096941, 0.5446536094722666, 0.35153984435897073, -0.907883205015497, -0.594120067056452, -0.9203546476228995, 0.0818461514381636, -2.6599805121073565, -0.8545631348942664, 0.11467667886241871, 0.28154988182054574, -2.5838947681410245, -0.407063873707769, 1.892935839996984, -0.4158756748755709, -0.4157834616849844, -0.5600472923751486, 1.8727001407075514, -0.3773836995496537, -0.9281170740380649, -0.6108147766264492, 1.3021482634060666, 0.35046246899175637, -0.25057053453469086, 1.2434002798602037, 0.031092141848303882, 0.10957536392221884, 1.5000487144830885, -0.057749733242095425, -0.40477242290983173, 0.18538024212040358, -1.1486724159129758, -0.09210027005014165, -0.0784487884147392, 1.9402390778928573, -1.5713349929451887, -0.18694692902463583, 0.3869717983475802, -1.31920013839951, -0.989597870860644, 0.01217564521425689, 1.605425408651044, 1.3563529413623954, -2.1595787616048563, 0.8860385126591224, -0.23724397772672967, 0.6561815988594962, 0.3004275249624699, -0.2618895463356652, -0.9866517803395011, 0.9893608994903977, 1.7177501081717703, -1.1028928090906194, -1.0774172322038253, -1.6302246855013365, 1.5992918427338263, 0.3025989945951438, -0.18010043121999122, 0.49935569940015984, 1.6768530827472394, -0.936575302085735, 0.13957051609381335, 1.3711456414389795, 2.071378283482366, -0.40550351954981095, 0.049377499407198544, -0.4564827753561189, -0.5890033738073889, 1.0632171555144103, 0.031111347070718384, 0.43578111821693993, 1.051131877276879, 1.7419413043193874, 0.2373060333084895, -1.2144738301048987, -0.4785190593466195, -0.5304452463903122, -1.1107640802467547, -1.2160926437784672, -1.1374834955094901, -0.8004246999979147, -0.03157626350254669, 1.450892423156244, 0.9655394351358069, 1.4164393404935944, 1.1587721442798073, 1.7209179672784038, 0.4048467874856971, 0.4564669638064776, -0.44247331943186025, 2.0994928025804374, -0.32240807636775615, 0.8785442165635079, 1.4777171749465925, -1.5205196899721496, -1.2509288487800532, 0.8926909615030171, -0.5127283298955874, -0.8979293439971077, 0.5382874983453577, -0.7566850127694643, -0.03986651218449795, 0.3009206282697889, -0.1664852896075557, -0.887854056238297, -0.22614603974208422, 1.071577171243426, 1.063744780085353, 0.15247699062581246, 1.131530622732233, 0.47379200852452974, 0.22762702422523345, -1.7375147336643275, -0.3976834730565344, 0.6051224983570003, -0.9779631912981682, -0.44026614240759215, -1.2743904248230113, -0.9561813429317576, -0.3026691960756435, 2.159265515606887, 0.60547627874869, -0.17002549560109761, -1.5065128626431366, 0.357844413316318, 1.4233849531680387, 0.6183506876217887, -1.9302930474808344, -0.7905787279091352, -0.6189965077334545, -0.8818052498001391, 0.06532388101690847, -1.0249639494800669, 0.5750587894342499, 0.7655055252348334, -0.34298271919271595, 0.4456669885482903, 0.05449612600405937, 1.259568869063709, -1.0533832842292834, 1.3566660380799662, 0.8800595823371646, -1.147671121569091, 1.7640632849036113, -0.27302831862358445, -0.4372110412805611, -0.15167552693197178, -0.05005443470239919, 0.8120544098955395, 0.690878257281727, -0.30674799641999456, 0.9194650222975721, 1.105332252532672, 1.0177182565186236, -0.20610992927628607, 0.04673673516342578, 1.1421402935258025, -1.0426279168253005, 1.2527654554162164, -0.0606715577828783, -0.5911467376041764, -0.3217990185228912, 0.9737520393482781, -0.025536572043512604, -0.16949673138675816, 0.9113065645976741, -0.5330893832142203, 0.45767164599862725, -1.9293143578913146, 0.2980130416278543, 0.2541122895198525, 1.4037797687856144, -0.6751713139821599, -0.5397873408985695, 0.2498315146406839, 0.6957564636693219, 2.5615448610410017, 0.6989486747876454, 0.2105707053967489, 0.6301594352179815, -0.8180938373207912, 1.2013651150436375, -0.00904234751459297, 0.544201369838899, 0.32538573637016655, 0.25312093907241273, 5.257006756546085E-4, 0.8802588437106149, -1.862354509898937, -1.0663895675778745, 1.8382485469978884, 0.33509306746812795, 0.06360524584756701, 0.3333777369423746, -0.8667502386466939, -0.3775561090696066, -1.7445386069414155, -1.590105618820419, -1.1873917587667058, -2.3865535781773417, 0.31148534041502035, 0.39256680052019843, -2.1558775643552366, 1.552462162660426, 1.1136472917196336, -0.10926385133727796, -1.08777030638167, -0.6905068093989867, -1.2695418695212386, 0.41964940969088516, -0.04529383813884393, 0.2131416851808545, 0.600931530337611, -0.5949008630486944, 0.5217420776698282, -1.331530731604451, 0.37479045693661006, -0.1703041202492283, 0.421253627053348, -1.2826191349803957, 1.9614276072918655, -0.016197489615693235, 2.079800315876431, -0.0568129640062332, -1.2760462363059006, 0.01388194951181017, 0.7574938906420884, -0.13042477220932422, -1.1246492363725988, -0.388028912014156, 1.353776929591386, 2.5288115850245263, -0.5025628031450121, -1.6584717137065519, 1.5219248868330748, 0.20960404188607493, -1.2632259330060558, -0.36681451283868977, -0.43562663206655733, 0.15638656374674223, 1.6810180937546166, -4.1732873058301077E-4, -0.6706984012629653, 1.1729981721622165, -1.289798820972652, -0.007572575638168416, -0.15779138801257994, 0.13302421458680988, -0.8621173219273286, 1.3424399239107563, -0.5740855280637557, 0.8510593317615084, -1.7715504297397742, -0.912893744180559, 0.0502772131624726, -0.5659313444349816, 1.2414640883393908, 1.3936849186862983, -1.890150313278755, 0.18798060194174976, -1.2126805611385787, 0.012899568825851396, 0.6336816903402805, -0.07880282454089656, -0.7389135932884197, 0.8585427911925165, 0.7456398425811339, 0.4170405394609586, 0.0031768418020846653, -0.3763416959335231, 0.6436889526602338, -0.3225859958853131, 2.3169015467045706, 1.8200789216181699, 0.13111617450456145, 0.8553302781731723, 1.8852371815995361, -1.2573600330796697, 0.1530644886416133, -0.485990014420726, -1.474350757254842, -0.7046517711975232, -0.863099922742149, 0.7309963393205572, 0.41503313543272813, -0.5631617054339403, -1.35444976018586, -1.4552749140570749, 0.7794395342795726, 0.6623169632719418, 0.7145396784381259, -0.2933693744533335, -0.9336588412964343, 0.25827597226861615, 0.7243521064000491, 2.4259250568480346, -0.11646037789333762, -0.06832936132202522, -1.1925934343525715, 1.271351142846298, 1.206885242140325, 1.0309145468611052, -0.757009937805747, -0.6949476037842819, -0.9679420133456772, 0.2139239336425437, 0.9742020216000492, 1.704878767716339, 0.5316305842121902, 1.7264299762796989, -0.0823086322899369, -0.3901905824808367, 0.8253021209219481, -1.028375210313546, 1.895153212612506, 0.9050919728462526, -0.14450568023959676, 1.0075064439595804, 1.0564345729336084, 0.17783560234056983, -1.541800087519278, 0.7976760599956031, 0.31565856281925725, 0.915598880973093, -0.2824987243252672, -2.0426670141989645, -0.17960426190942166, -0.8583847747831249, 0.8064190229210966, 0.4412814472354786, 0.4557729715704799, -1.0689298882803149, -0.1331995251805633, -0.5471729289794712, 0.5505611661430279, -2.026307990408483, 0.7796744690108496, -0.14630180547821287, 2.054250306202336, 2.683907414771214, -0.025126008107697755, -0.1884111204236655, -0.05114624929849713, -0.5068561638136826, 0.3994101028971768, -1.147821426147097, -0.04613896969014654, -0.13729271314640684, 0.41941118777118924, -1.2029707695801175, 0.972249085308698, -1.7844281007093126, -1.1084282489471615, 1.745053715869602, 0.07095373922538552, -1.1336115007536092, -0.9208597109566725, -2.1699461286697277, 0.43217719892829654, -0.8421325801075463, 0.6424044695133728, 0.22660801467869204, -0.5143516686637551, 0.15264839781360612, -0.6857653361014238, -0.23864414890272934, 0.7773281481593565, -0.7159742219400311, -0.06672274008304754, 0.7896139273723471, 0.38360228905559746, 0.4772892453072569, 1.1816112048388934, -0.49729781375897614, -1.9643099202601977, 0.44011505055736583, 0.4739289710477635, 0.11699125169454272, -1.5700826752935964, 0.03295305975979862, 0.9759297380043869, 0.32446786884405343, 0.3168196503646389, 0.5454394717499691, 0.18697612395015026, 0.2517966352437679, 0.9335144847751495, -2.4781940750161073, -0.6952920583445393, 0.292431189020726, 0.5249820571122754, -1.408149682084542, -0.9681139969651474, 1.2112370838618722, -0.32822279935363435, -0.01122340829733719, 0.14971650927643998, 0.8729708635612895, -1.0996428626537686, -0.8848366477260745, 0.1382674637457492, -0.034356360108432, 0.19319475241184964, 0.8382027749151556, -0.27687103373494903, 0.13583946378103126, -0.06576097431768856, -0.25358288144120256, 0.059506637142492436, -0.41786199323288237, 1.0615583461864408, -0.6119599669595182, 0.8081441015999131, 1.0615667156333037, -0.14714871636955187, 1.1525626024357194, 1.0455769611937322, -1.377206896864585, -0.6858333299269099, 0.0795549843153953, -0.14584477029422555, -0.48773418589941536, -1.6444292694557499, -1.733555348236307, -2.469468719709913, 0.6403318345084615, 0.41105646468192125, -0.9993942465786889, 2.195903288446768, 1.4223344924822419, 1.6602245487776914, 0.05276190438951268, -1.292514102514891, -0.6217049906334133, 0.39367794395374295, 1.0282563708130885, -0.774632909776478, -0.6204018786883596, -0.001637204973213081, 1.3206796823222193, 0.08740864274404354, -0.7236003105106629, 1.4236357419629593, 0.3737036052584872, 0.41237066933540917, 1.8480590303145952, 0.6374707050669585, 0.38427884516089994, 0.6429338732770158, 1.596341980080558, -0.6974119682018689, -0.20188275876389478, 1.8230416720173601, 1.5753391671499712, 0.12257642363237672, 1.0273676194709782, -1.4211443216546007, 0.07642937297544602, -1.2600304374938633, -0.24858402409862435, -1.5148069058951774, -1.6517875420148742, 0.020802226661944874, 0.023754155383832406, -0.5676942675038621, 0.35786440694823957, -1.7814863524345932, -0.4838638647213759, 1.473268796204237, -0.4927653796392172, 0.24625005848775477, -2.0103909098220534, 0.1826242773289154, -0.24536245343014315, 1.6177951631536769, -1.1644987870408472, -0.15153427362153132, 0.6732997920670944, 0.7511148411596995, -0.006992037416172926, -1.05872864689672, 0.41386643156214076, -0.7937832643850804, 0.33880872097921544, 0.01105140619140415, 0.03204210272515218, -0.13088284078546925, 0.22581398395157884, -2.5311686151542236, 0.1445933227484881, 0.47907555224222736, -0.4980414288236074, 1.1015400401858582, -1.2216349877307324, 0.6936760322520897, -0.35813055199485816, 1.4200674347878894, -0.32242125725991494, -1.381934875704844, 0.306976542446056, 0.23545082178054735, 1.7612883867954812, -0.029279555945292905, -0.7498447670639046, -0.5548414248992705, -1.218381056540738, 0.29618140749081157, -1.1926322235476436, -1.4146054985286327, -0.7013486691417262, 0.48015960709077854, 0.7359522594591061, -1.5162293663156212, -2.6198728404915586, -2.390079446329725, -0.13884363951862713, -0.08492248414086122, 0.33868751426460203, -0.5089091184407821, 0.25905525479890174, -0.8062574325603331, -0.8538006163623243, 0.47474146365608416, -0.10889479089736886, -1.766428718837516, 1.701438102793334, 1.504397662604359, -0.13939417550746758, 0.3706676495222416, -0.10221674994742304, -0.7571137837069135, 1.0151278215544826, 0.6228459739711686, -0.496805461287922, 1.3257560360773386, 2.0177972865804468, -0.005646750043316418, -1.4922377671388585, 0.15690162892022666, 0.4803491609295611, -1.674977695137694, -0.4718304461551447, 0.23395424540842324, 0.31162834612071727, 0.1927555808446208, 0.9280427584001449, -2.659091536018123, -1.4556646007450913, 0.4338172899712537, -0.37072974301569006, 0.5843678938525096, 0.7712386402788446, 0.04549222350143677, -0.1024484087274188, -0.07201760575446206, -0.29518372021506173, -0.7459521994751804, 0.27421600032772, 0.2347326600195795, -0.46417525853773817, 0.9212385507922454, 0.3411870571983483, 0.9783603653051565, -2.2968336634838336, -0.25242512635694037, -1.3042623291568618, -0.050046470784354875, 0.32395743606926114, -0.8796115151310013, -0.98204097825751, 0.06622957636150509, -0.03956392307187453, -0.08556502372375979, -1.2077917900799198, -1.4527838568012432, -2.408898372272997, 0.08424938263553765, -0.07470134712722079, -1.130608709880745, 1.397033075270078, -0.6181833316979732, 0.9209681415459722, 2.033552980105196, -1.2153560124330975, -0.2434983664424625, 0.5547763384055695, 0.9723052348189224, 0.8255377079002666, -0.4709701613554076, -0.13650298100527744, 1.6692488131090406, 0.9824670452423337, 0.08750740198445914, -0.9364119846177686, -1.8398215007624776, 0.8549212823848018, 2.239757466762925, -0.19091063139366815, -0.4251294563857353, 1.5932632583032302, -0.12755983232165571, -0.04065467951195104, -2.5816234726249956, -2.4278109602266946, -0.6838342852895914, 0.2643557608433862, 0.7895268517928226, -0.8207070410745636, -0.6968066344237165, 0.2867389170409536, 0.5776387105637958, 0.45395982924399636, -0.62263972661969, 0.3274662832502611, 0.40515496622120234, -0.7783565229904907, 0.0018278768016797705, 1.01431672863199, 1.4903602056454242, -1.6806391570546486, -0.634727246589208, 0.14534469718909881, -1.049425813815297, 0.05336333826162898, -2.501543449038229, 0.8194256657579414, 1.207524739770541, -0.7646328848035882, -1.1683766495061056, 1.0343764379506868, -1.8032408454684594, 0.7930933006326277, -2.104822087782895, -0.0251958450033679, -0.7018786833179316, -1.064314647535636, -0.7057263374506015, 0.09755827618159141, 1.2287486573877038, -0.7779164443881994, 0.8156495270514393, 0.32158758248363745, 0.24951854931291192, -0.4718714971923991, -0.11123271933807348, -1.078916172739444, -0.4271939204850139, -0.017190586897516652, -0.4092764170210898, -0.5308717295110296, -0.6694936458237131, 0.15365261249745774, 1.3938313674197083, -2.2868702472861275, -0.5629505006541257, 0.23606734682392497, 0.3642128669044874, 0.7601322637859954, -0.9692438435423602, -1.0087742225600467, 0.9505459835744243, -1.558522362833104, 0.9784181868694408, -1.0244263089551853, -0.6340777254482179, 1.0229357501187213, 0.14919736402635048, -0.2680940950173473, 0.5242017262586522, 0.8834533367432564, 0.0771240394593761, 1.0498312622850394, -1.2512072724944574, -0.41414144022570204, 0.2900312755307936, -0.76720655874488, 0.33302900995169443, 0.1260458744583655, -0.18791101403684496, 0.06839162987841556, 0.6904815128690176, -1.3916422534680988, -0.914138157624214, 0.5015413219794712, -0.7837657254544136, 0.5644994974955401, 1.056702405429422, 0.2842788063526187, -1.2963209858949007, -0.05493317872926288, 1.2260515895515427, -0.34390930404595477, -0.129243108064258, 0.363098324506803, -1.948558422805415, -0.762854396317821, 1.3958261970448165, 0.5133263079461068, -1.4474919509864121, 0.11986828832014645, 1.4588949555191468, -0.8805668761212724, 1.6895298683069702, 1.036637223007187, -1.6105530930933412, -1.1362930816167034, -0.10669313204464786, -0.007999518377836265, -0.5278753810818125, 0.6261742812792898, 1.4484317261462216, 0.3534016164899934, -0.7317570643582739, 0.9595337550602852, 0.20738102939492872, 0.683323640387909, 1.0171618157081481, -2.067208311992705, -0.7568682544401584, -3.0989303030704116, -1.4424625086144813, -1.9487484369322552, -0.0635602924983226, -0.537280374858277, -0.34543072188433815, 1.2579302850924599, 0.6980295899134744, 0.3863254851928094, 0.6386198644745824, 0.04904540364660597, -0.4049433719722329, -0.21505051123351712, 1.4339469098255657, 0.16207110609785688, 0.03497871521165193, -0.39147665035918683, -0.5400346320506313, 0.268004122383756, -0.56620929934241, -0.2823758292990457, 0.21607235067915131, 0.30692727519373875, 1.0336610124087269, 0.8115902067867006, -0.16770608829163663, 0.6459730756291617, 1.582097373287126, -0.7783918969360583, 0.801803627692564, -0.8474287943491179, -1.6196405831286722, -1.1989213327527926, 0.726831192440619, -0.6703389774759195, 1.1419686235781965, 0.46347291925058365, -1.0508016940863019, -1.249701590465035, 0.5987171961579589, -0.4576893897412793, -1.4004287186267699, -0.9051134917030067, -0.3773254485858444, 1.7716917792011242, -0.3406366211802516, 1.7134353199761034, -0.016030400821786275, 1.2019819725578824, 0.7638431941478524, 0.11397753263855578, -0.4355274844789121, 0.12372122985601171, 0.24499040707616965, 0.347000860959148, 0.4225191364815623, -0.08117889892228215, -0.7459115125274076, -0.2432644012872647, 0.39987422088797525, 1.6200939004755648, 0.8991609084961536, -0.29765661854455566, -0.11399128288754456, -0.2875075022059349, -1.3989138866730106, 0.25948602276991106, -0.21548638731409794, -0.8257214048574069, -2.430483696753491, 0.9349374521433671, -0.8612604791283988, 0.23647929034933826, -2.172753916276226, 0.6659720584425605, 0.7377654562980701, 0.9916502446550497, -0.6266934548980428, 0.3145094630623607, -2.157914055646708, 0.10347005639348268, 0.4133017860359894, -1.3479732907380182, 0.4297869306625524, 1.0993794025190151, 1.7390734068684701, -1.3327799714289523, -1.046671550516433, 0.13609981847902128, 0.46094857995789373, -0.21187669759196273, -1.052403430919056, -0.4955042596819566, -0.5624813549120598, 0.8873381816559386, 0.33324558198663795, 1.055780739868665, 0.5867401196929021, -1.1966603043999746, 0.1685091047495735, 0.2207346290638324, -0.9323058047339313, -0.37255762360530464, -0.08812614918182926, -0.7439372555379246, 0.4366843298816399, -0.4882744131715322, 0.3319096133184384, 1.218219411493323, -1.3209166375960684, -0.008090811596424078, -0.5321611285681177, 1.4118271415754775, 0.8337583774909142, 1.4933035593271553, 0.8205475768474411, 0.32563038527528854, 0.5719206055437153, -0.8273389953226823, 0.3016144655794086, -0.734727026628154, -0.7811870403672541, 0.2533920777590247, 0.9304115864262411, 0.9595121153807875, -2.155932154126241, 0.4507408079892113, 1.677058720890631, -1.6257521398963832, 0.342927650021283, -1.168180246748272, -2.2652132085555574, -1.3704026387874861, 0.44179346086590887, 2.8847629771572088, -0.35161242484502897, 1.3403017087368405, -0.1971564281922523, -0.019583550208356674, -0.3320440677367613, -1.2229333478115187, -0.28700833157116307, -0.06882914550453596, -2.327413571780376, -0.3529423508079349, -0.8173905255824991, -1.0015826341651175, -0.3568878945139557, -0.1252328423991626, 0.45587179228472763, 0.28174045617437077, -0.9644058351171774, -1.0203449236904882, 0.659591114531223, 0.6990379143421992, -0.8618500213095516, 1.0451083438671904, -0.8148096538454821, 0.08531566568640386, 1.9353971749054042, 1.6227698923036096, 1.5032693785595315, 0.5089578650516441, -1.1543006894800625, 3.303744203155194, -2.333217860624091, 0.17117893577974666, 0.4248967057251966, 1.2767933597690957, 0.04249864988881957, -1.1437920752251671, -0.36507240264980245, 0.3305868217380333, -0.3283474415567954, -0.2961519142399463, 0.5915057071799075, -1.1481921796045378, -0.6746686229542673, 0.517102918698304, -0.8929915432734219, 0.31896226001651495, -0.0978706713641321, 1.724270243682523, -0.751093004888591, -1.2961222575190288, 0.2791692536156045, -0.6939129608382937, 0.7284223442530013, -0.9929214986628677, -0.4870178001661357, -1.0666652407072381, 0.45512696781023393, 0.11992100740612169, -0.319661055354215, 0.6110010906271492, 0.41138489597965583, -0.3685470500223827, -0.43358272253762425, -0.43132763463327967, -0.6538687907599309, 0.4934275350561904, 0.9115755354502789, 0.3455321573752868, -0.9922470921122145, -0.9948225239216545, -1.457946431530501, -0.7741906424721201, -1.4285772391579121, -1.2916278136285249, -0.6758153493948439, -0.6248664362704683, 0.1166559039115661, -0.4037304670949186, -0.2004406873670292, 0.14859100786770552, 0.6643409307694071, 0.12535594302408445, 0.7278008852380498, 0.4792943028105601, 0.8897223215816661, -0.13938160635099803, -0.015069407989889115, -0.9070838968813036, -0.5154614829739517, -0.04462269950126677, -0.629912642474275, 0.4196307275375747, 0.18340927094926987, 0.8381962000972297, 1.0969079716585786, 1.2045608485389285, 0.475385130835989, -0.45211396233849843, 0.7006430696747273, 1.4676944412263393, 0.43397699035369514, 1.2451604769021332, 1.6301777720155768, 0.751790130275033, -1.2563079799390282, 0.052616181651575035, -0.4059872489961721, 2.323601878012615, 1.885848163741881, 0.5538162455518041, 0.2016718969363752, -0.4304321492954248, 0.7286583737170659, -0.6692667365634458, 1.416549779224417, 2.2890350014093435, -0.13787378701989966, 0.67191128816488, 2.099497362306117, -0.5981934878187972, -0.07612925257989371, -0.6153694057907526, -0.4767984517552466, 1.597468926826052, 0.1964515375269859, -0.3403746910914555, -0.3698929289398754, -0.46524813693450384, 0.7356920625916975, 0.13369619000497468, 0.7266661968868189, 0.20406696808264785, 1.6912744718311914, -0.19853715195834223, 0.003548671039332608, -0.9012130353027776, 1.9647287847568904, -0.7597171272314297, 0.22002069717002257, 0.686533590937122, -0.5529296448536224, -1.5617889349783054, -0.1822297273793737, -1.258586183265761, -0.08916452281954952, -2.4179746552948327, 1.3424940168344945, 0.8996537415549506, 1.255684300880247, -0.8365734177363927, -0.1285382593343792, 1.9527363840477983, 0.5524717719273843, -0.680118470313944, 1.647597846636118, -0.15552016487662798, 0.48649191181887147, 1.3918151964003531, 0.32085050354860434, 0.16671029381958605, -0.7284387160525827, 0.6469229003964717, 2.5034277126537585, -0.2188551837043866, 0.6190219204497189, -0.7598176441388182, -0.2983948425811687, -1.2968985067086356, 1.380430291240358, -0.3386193797375441, 0.654335018851306, 0.7184841773084392, 0.5348822093437866, 1.4698456207527477, 0.14581919924726902, 0.07202805624958958, -0.7109743413668659, 0.7069938224780814, 0.8974547976586881, 1.0083555226794005, 0.4726778526559624, -0.3238510499961207, -0.843729754054474, -1.1099265313544042, 1.4089116500096541, -0.3145186422621844, 0.24077709961292035, -1.4108384091247907, 0.9359973530294518, -1.301486216443215, -0.020982390914114395, 0.047146836090228315, -0.7011618942881735, -0.3542616567158224, 0.7661342622241079, 0.40987261846734263, -0.011479135533030248, -0.02385091762493497, -0.186043155350119, 1.0733960431316047, -0.918769523529816, -1.3404189122882046, -1.5586366068744724, -0.389538862692538, -0.1049066837232361, 0.11737777162118528, 1.6892922048879528, 0.11008019768462486, -0.03778047478780825, 1.9138303149909743, -0.4579581145075942, -1.0796991110827696, 0.20789101949392336, -1.6658851597950393, -0.5377918933295983, -0.5995314510652783, -0.28892660612816573, 0.48816496881726523, 0.8296720381523612, 0.1362523722601523, -0.173636323300894, 0.062462364869415594, -3.6021443639535407, -0.43005933058755014, 0.1974695232144069, -0.4434038324865367, 0.10234745209677032, -0.6578905941668588, -0.2791004294369232, -1.1373495419244406, -0.8000941123543758, -0.3620321996600393, 0.1734119694008663, 0.2930213984749328, 1.4510586453105079, 0.9038264198461635, 0.6412389481275369, -1.423645551187686, 0.07531413201881583, 1.778363502478974, -1.156169077402247, -2.778544401846565, -0.07515392254226276, 1.5737312422434409, 2.9232349022866906, 1.0191802986165488, 0.6048309240776425, -0.8837086027143514, -0.4885944405793643, 0.24995420083256237, 0.9675964500364761, 1.0327020946880754, 1.1336510332874434, 1.0306597536974187, 0.6375198031022938, 0.6904256655261193, -1.4049443726411777, 1.5823273863168452, 1.8898466496667723, -0.605597247049698, -0.8882520626375452, 0.6151085646553821, 0.16553455390297558, 0.21839572916446326, -0.19722480537862963, -1.066447172461154, 0.7198719383747503, 1.1608758819875238, -0.19128668305362367, -0.23498569545890094, -2.65433730197319, -0.8760989613005641, 0.8820590304474114, -0.689560745003323, -2.0153523516668255, 1.802454859845281, 2.0821233223488984, -1.0758515675144298, -0.9030908885203638, 0.5182220197186251, -0.3436451417026936, -0.3879437900572378, 0.6990094523038541, -0.15937432092496123, -0.39858030478976075, 0.08989735058629028, 0.7480687942652111, -1.0754667826178026, 0.07334309225476025, 0.08360290597309712, 1.4622100355676002, 0.2125637555466352, -0.28360814689332015, 1.721309499918557, 0.3508785293476932, -0.8078597154819251, -0.4544101172558348, -1.6532760824682122, -1.095915416450223, -0.03327813360627043, 1.647146492119403, 0.05929898072900405, -0.27039788090638806, 0.5317042785089768, 0.5428650834108437, 0.4463088923162048, -1.1667874680934607, 0.16504371716356966, 1.3082799479626135, 1.2251060938395644, -0.41086149479937994, 1.1750208141639993, -0.5477900665883518, 0.8150754968692439, -0.8139208059143765, -0.401986550828674, 0.8484500842624519, -0.3530989788246229, 0.10408689696765888, -0.6679138184484454, -0.7620371920340946, -0.42136908926283934, 0.6154491084500109, 1.1302929724173107, -0.685819483316849, 0.9703742629557769, -0.26315183854331275, 0.010830026656163347, 2.114505461193945, -0.003910128942349409, 0.3209611862679202, -1.59944650354401, 0.25777540892561795, -0.642058487534416, 0.5198665089393677, -0.10270604023547453, 0.34519696562908175, 1.5265797004622024, -1.3342014390810621, -1.0940718874812183, 1.0978569938310534, -0.1286216360140257, -0.8802092291897258, 0.8583842507381841, -0.26179098889214997, 1.2082779644695851, 1.009297013104129, 0.6451912815753702, -0.5335733326916372, 0.4531824228394796, -1.1561693772388775, -0.6528827034973838, 1.4376443348544417, 1.5959048736612542, 0.6042330090375228, -0.9687821478681059, -0.4836114131320105, -0.33318259125708066, 1.0875475793589249, -0.7937230372508036, 1.7204890506072141, 0.3279448343147179, 2.122989323768457, 0.2739852126052631, -0.39257452356589384, 1.9098389776659703, -1.5220246652659797, -0.3598800004321775, 1.9160264566982943, 0.0074233367535939615, 0.3403427276479968, -0.6851044951883298, -1.1767575089784457, -0.04151300751902521, -0.4624840551302107, 0.1401002944765566, 0.6532443689248135, 0.7802143550122415, 0.7327994598540897, -0.17375928679411565, 0.22464343474877002, -0.7292917996271676, -0.9093096272057003, -1.2200273398406511, -0.3476156196179423, -0.9598938498282097, 0.28276315904122484, 0.015774774617824942, -1.0587285157364408, 0.14306103289718175, -0.5571577738914327, -0.48101860068479335, 0.1735887796153743, -0.6675841645554978, 0.4185961712097099, -0.072163612002904, 0.03859298116318773, 2.3344896765229235, 1.4154294638000937, 0.6778625579590467, -1.3296939826433363, 0.10116421502869044, 0.33155214338955763, -0.5391321015220146, 0.4174788036561572, -0.20064973115203733, 0.32872500225216494, -1.536416760407352, 1.3696178282912745, -0.2746573971838067, -0.5796841640030098, -1.2651538912307763, 0.24033540718664223, -0.011113072357658413, -0.2775313183152505, 0.764106029822281, -0.007571401968092589, 0.5805026570342162, 0.15348115249882727, 0.13210658676426484, 0.23945887092370974, 1.4426057306816416, -0.8762819740051304, -0.9026776346526838, 0.15031524991519918, -0.8295483593947914, -1.7982228540972185, -0.23772524473417736, -0.4002411382598418, 0.35716511806533235, 1.2107078972768262, 1.0053529604058395, -0.06162774732149041, 0.4945669868156456, 0.7099037935229603, 0.14003962966136274, -0.30743424355983595, -0.7637332078014901, -0.3709734689026351, -1.0737102557856213, 0.8621974333046142, -1.595865593005182, -1.7192085967560375, 0.43708491053269777, -0.1603028509825458, -0.06623478648059643, -0.9189666360771924, -1.924975564972316, -0.033533116786275824, 0.8633845481839622, 0.070169577491753, -0.06835170676787708, -0.17154188298019732, 0.6132076865777688, -0.13824459160077793, -0.7408389554599514, -0.21005620111878548, 0.21050439268157814, 0.24577901854310844, -1.7131398882602844, -1.8035882698723769, -0.7968126215241708, 0.9887252302654872, 0.34345086665817887, -0.2840335136356707, 0.5594805088221975, -1.145855992912009, 1.3414847733974544, 1.0445746627870096, 2.0433920977404836, -0.26532046349303207, -1.5326674625954904, 0.6186143124481186, -1.362525159682063, 2.5998384261740313, -2.212010035661481, -0.9787403187862239, 0.9569999780375049, -0.1164825580711042, 0.14453706348716322, -0.181893001179902, -0.6486136564841032, -1.07536912238195, 0.7201323016442275, 0.7001982283330771, -2.5866987183239794E-4, 1.3458160458819837, 0.6419677585708602, -2.617167043607049, -0.5597591652778823, -1.76613443122874, -0.4401588618997655, -1.687799341386785, 0.8981554682495777, 0.5408293754822039, -0.20421832929127925, -1.0124220547239822, 0.764767785659934, -2.0549018056405983, 0.20174534099707628, 0.9426061411639067, 0.08149610404564885, 0.45164975607054964, 0.9793721707833983, 0.10845824811923192, -0.8050287123413016, -0.43060146388362885, 0.48858096918478255, -0.278603935814968, -1.432977504490912, 0.38246875623375937, 2.696149133786475, 1.7671626821327109, -1.1134209313266632, 0.45542412721140496, -1.5958279386044392, 1.2723271045339402, -0.004710471369951471, -0.1928389869666795, 0.18892477458693346, 0.2225146673361631, -0.08581073358502593, 0.7579879755986095, -1.7446294749664513, -0.2711383625385752, -1.1748197322159164, -0.24457877227328664, 0.26290887662691137, 0.2358224559505662, -0.20263638173647153, -0.6554796215856107, 0.634491761172553, 0.5557027928424636, 0.5604365935232011, -0.5007793584587499, 0.26057181322859535, 0.0893216422014527, 0.8583456615018272, -0.13168847309930187, -1.155005871261962, 0.1745162646585355, -0.19241272087568584, 0.5566811174779717, 2.487883410457856, -0.022369121709609013, 0.16548076696995198, -1.062491216557505, 0.866575354620496, 1.6362163315079563, 2.5687634795538825, 0.6716158104719302, -0.009572140235524475, -0.675363303132473, -2.073033915733197, -0.13391317547593712, -0.47008322719459567, 0.4163774398895049, 1.0684349463258078, 0.6651166413751943, -1.9159018841385387, -1.644740006220508, -0.7289714956442277, 1.5563858261147374, 0.6430649293767485, -1.6394813022989596, -0.9791703304485265, 1.420336397750595, 0.7693549435924469, -0.36815304495452844, -1.4785156881166237, -1.600349360839186, -0.345413471218162, 2.1962571028823774, 0.07397044129689943, -0.7870979331350948, 0.10355519912121895, 0.877381780165081, 0.07983087568152707, 0.3257312864156885, 0.77660758644893, -1.4261323298292257, -1.4032672334339569, 1.5984782268173747, 1.6299489700446466, 1.1593797600163864, 0.0850682518434887, 0.7941613423445492, -1.146803642727056, -0.4504456177345476, -0.5121458642148562, -0.49825697947660835, -0.40816737895475946, -1.0922014201321864, -0.2338718260045774, 0.07905719610398364, 1.4647582775150132, 1.2709705545695869, 0.02847832180894756, -1.0105756348410369, -0.2859363441960776, -1.5817790416858208, 0.6422288189568716, -0.7163316478314254, -0.06681623070867042, -0.1306703038738878, 0.7660509612407059, 0.6610736333900143, -0.10017235789920526, 0.7210219510828044, -1.592922713157611, 0.14117842768833272, -0.6640155108674572, 0.8247708817295268, -1.3121059926281207, 0.1374558718420122, -1.2408045421120206, 1.847963490710996, 1.333041199498428, 0.18566105312768777, -2.100177327501272, 0.7197913975494099, 0.4321391052396216, 0.7381662140379122, -0.07044656341626387, -0.6683610897784537, -1.1689760644832814, -0.6005998621822557, -1.0448456995688808, 0.4893351230102124, -0.7193330742745851, 1.0606024625306094, -0.539430972365578, 1.1528267782071346, -1.599830354362842, -1.2107398239731348, -1.848511460286286, 0.6836527697807089, 0.47908271631706423, -0.8825621398011466, 1.119618873296163, -0.3191808425501887, 0.4062561576245414, 0.8104307151469223, -0.7317745881050621, -0.5090583273237697, -1.5367705427023155, 0.24543088978723415, 0.011028605415614701, -0.19584004507518019, 0.9348184728860213, 0.5122789396404267, -0.31249323356209296, -0.2983860020203913, 0.13730345417133105, 0.012035476260093981, -2.317475208473109, 0.5478022937421196, 0.4592249742917349, 0.48900868929000757, 1.3358619361102244, -0.11945901600921854, 1.3378494376963355, -0.16438279752185203, -1.6620856460158349, -3.0841002740283665, -1.8091330434328028, -0.31771964301711114, 0.02006482910681441, -1.61273823784525, -0.15744806544581594, -1.0578471489693786, -1.8722173890257285, 0.17912170336364028, -0.5229133937243178, -1.0097462550242344, -0.9617923556914281, 0.4632622304074371, -0.935014714173081, -0.01764382634636739, 0.7570827620456705, -0.049343392833433905, 0.880517257720913, -0.637325411787992, 1.62508289722775, -0.06160741670283141, -1.9312869376158994, -1.5305307111964965, -0.5288693728711208, 1.1580009456881737, 0.4310982036440056, 0.919730053024822, -0.533644325966212, 0.5645463300931064, 0.844478455066908, 1.1707957936696296, -2.651971642545268, -0.33662915724031667, 0.20706632522305116, 0.6651597150486082, 0.5534447332653769, 0.4407391819438993, 0.1945264996938264, 0.44478629355249094, 2.360272625724149, 0.061192048924733095, -1.0818761256138976, -0.8906293112503365, -0.07472677998467109, -1.31146777112612, -0.33513299040232875, 0.3112891351671902, -1.7905867640620998, -0.22648136948054173, 0.7654644739753766, -1.1543611468467332, 1.1212596537076176, -0.406267367631816, 1.0844747583149081, -0.0978893005280857, 1.0456792094047993, -0.4402334733224367, -0.3823768363323138, -0.5113073116006942, 0.8734120652882805, 0.0010577228562202395, 1.9680791106834687, 2.121862291607693, 1.0782290359873683, 0.7060914936877766, 0.7740517280693379, -0.5940447599275708, 0.6394898153432981, -0.6673898460609744, 1.007810723102795, 1.0501480371665088, -0.15612977730720765, 0.2848122307912416, -1.2547922647070489, -0.1345866061349366, 0.24843274973328844, 1.2135533997616557, 0.8875833969913285, -1.51289218077004, -0.2618049872682482, -0.045274901289176175, 0.029006521826648625, -0.9191909280442594, 0.6206012850911928, 0.5292801459312159, -2.9657741427190722, -0.06869958193508066, -0.8220029896505967, -1.8826243194805903, 1.720650169219593, 0.40097423362327195, -0.030880439389025145, -0.3183427130271468, -0.17611280717450628, -0.41442498408013007, -0.39133047110952046, -0.8315318245074946, -0.5952435637167867, 1.3016264553059798, 0.32283520964162266, -0.7964256204878534, -0.6889361153150305, -1.4331700859663243, -0.10278394294953393, -0.24401082873606958, 0.07035131620583297, -0.7454991286638528, -1.0444910849255926, 0.3058071229529108, -2.0194523801614226, -2.325606899786613, -0.11182307310713109, -1.463974420621516, -1.0950367011288604, -0.9583244337724439, -0.43923891241865914, 1.2831493656466109, 1.1163836188682692, -0.27835210639105773, -0.5952240033306025, 0.37569259630102514, 0.5590007248688706, 1.5419218408554114, -2.678560350161247, 0.06999615439898055, 1.6052984215129043, -2.5575283395826798, 2.544964984970866, -1.7241515825168143, -0.6259143114109286, 0.9001109293775597, 2.3381308631403632, -1.4055925660620596, 0.1889612437178198, -0.6735548151316394, 1.2474325196951952, 1.350614913115025, 0.09630594845004448, 0.9539817814878871, 0.2171048826627585, -1.3342105019719945, 0.2988176087990143, -0.5594231506479086, -0.430784155661661, -0.9935320246956377, -0.36134880258041774, -0.18092346516058289, 0.8445790043541064, 0.7444692155949013, 2.087901466486097, 0.08319135092780043, 0.335605119808205, -0.5422661542478757, -0.07539310139790752, -0.6426174795085097, -0.08466867221665643, -0.33540723745458406, 0.741745851174603, -0.5400892305059726, -0.10848709815718505, -3.7968894718239414, 1.1466093998288245, 0.48328690253839257, 0.40483150010916646, -0.001749219316153741, 0.059454575025514954, 0.033426142518815136, -1.7414261698431444, 1.2236859592434355, 1.314552734849386, 1.2042362651885665, 0.1523564246774649, 0.06541282260033043, -0.8589837130757282, -1.6970968848746666, -0.7426945523996198, -0.57451436215673, -0.8947417394841028, 0.66424527300449, -0.5049326527750594, -2.0189465968714155, -0.2242956429480397, 0.8377828763210605, 0.5855253341019093, 0.26979769754295224, -0.5859956595644927, -1.2969427283613602, -1.027080724302632, 0.598747275188972, -0.27055934933241843, 0.036509075039251375, -0.10046971737229633, -0.3433673991727247, -0.25275951389782086, -0.09939038938810811, 0.6274286551149834, -0.06575207843496395, -0.4310105839575769, -1.4816395269188947, 0.7380476893518927, -0.3263086887153419, 0.8854747074840859, 0.9902556069053016, -0.3051849214539606, 1.7682171808289033, 0.5110057624656598, 0.47827821804071985, -0.5868038776014729, 0.5870155362970577, -0.9152597985512598, 1.12181007756308, 0.1912910011302605, -0.3342485627694551, -0.6218096246782004, -0.6571093969638775, -0.4522819028685943, 1.1589521836214725, -0.08000422864552849, 0.4213247781557499, 0.2105783713543604, -2.4662673606380925, -0.7587889960411723, -0.5559993698510891, 0.1945259484988976, -0.08277977744889048, -0.6603096639222452, -1.1143388279105986, 1.2615075506625413, -1.5284728508379963, -0.003402988579348598, 0.18878113958210746, 0.5757673856256401, -0.6524647573532455, -1.1178850055940703, -0.2672379396318999, -0.9661755984568305, -1.0563744298745148, -0.3762096893119725, -0.27957554301891857, 0.0028093204123831148, -0.006842419847369061, 1.0024675900635678, -1.2176936443021147, -1.4506845617425757, -0.7338443935802081, -1.3432811326559202, 0.7331935085575029, 0.4690191949714666, -0.6473044072683827, -2.0159727402872076, 0.315575217448654, -1.3790615230895464, 0.45028674902259336, 2.3528368026523148, -2.217156391219143, 0.848580355157205, 1.386923431392708, -1.6048035558247522, -0.04938838966438714, -0.13469540203071426, 1.0101209366612005, -0.1764957102621028, 0.5008653712699371, -1.5750150114645918, -0.6648943284167173, 2.1163093296718607, -0.4574663899449979, 0.7090452331057495, 1.2693871364830163, 0.18166590770406552, 0.05057561466466027, 0.1072962176365821, 0.5440029714461513, 0.005836260807927926, -0.7375668076895072, 1.1223462544179443, -2.1741137925038823, 0.12515142670127272, -0.3256128840449926, -0.2778074686938871, -1.3342652515873752, -0.0044991444986814755, -0.8869529283200083, 0.5374469434792325, 0.5040663247597967, -0.5336258233290287, 0.13014015333145926, -2.351525571168189, -1.4607965933896399, 0.9750836508104433, -0.11339389508559557, 1.1122691751738003, -1.2211661522314392, 0.4239125434898779, 0.9316186205573803, -0.5809574854633732, -1.1650710954814876, 0.044926014708908335, 0.0996018973943059, -0.01275998200338768, 0.5983431107956932, 0.4445668848213573, 0.7306142279702416, 0.41715070537260035, 1.1337359505650626, -0.7363458530207361, -0.9859548517364503, -0.5087721101554158, 1.413047692789961, -1.4899921412038442, 0.1669446150396111, 0.16896471686059172, 0.1444385823411581, -0.5202910445699919, 1.13597921979238, -1.3592082037546125, 0.2394441080369065, -0.660329124648598, 1.225096283865078, 0.9025477621305527, -1.041440854995627, -0.377019604917155, -0.5178217318546007, 0.3734780057568838, 1.0892910245881917, -0.009203076125775764, -1.1817019402990998, -0.347618017693081, 0.8104453393355201, 0.8233072622646717, -0.6488033947663389, -1.9159941579700297, 1.2686055287730469, 0.5803186034789587, -1.3218131551505445, 0.5967823611690609, 1.85143752542181, 0.5399149063534736, -1.920724258410345, 1.235852370626355, 0.5433803027497538, 0.7202495633223392, 2.3685240297264003, -0.45106990048210405, -0.3328514377130788, -1.12374075609711, -0.6405206089020792, 2.2101054659720543, -1.6084615210569326, -0.18199233452259397, -1.056146952059333, -0.25128026700323675, -0.534495033834172, 0.3624762003671149, -0.06283997983217406, 1.2462233175412827, -0.025411868786531705, 0.8074618251912888, -2.334626381493343, -0.2547855021536732, 0.794297510843119, 0.3902846364972792, -0.45006162945046174, -0.4006141791414621, -1.761272718935114, -0.1511178280186132, 0.64282938520554, -0.8190096467557687, -1.230169824149011, 1.2489233977566419, 1.0855057572301434, 0.25149742228529537, -0.7878011418451993, -0.18238797921398572, 0.3168245098952995, 0.014715938623286191, 1.147614221045549, 0.037138846731831446, -1.5122027048584479, -0.3444552122947118, 0.9079935131747489, -1.0227160956485404, 1.0296530857054516, 0.33294962912053394, -1.1171018049531003, 0.8324954883851916, -0.8271133794695196, -0.5340130376253343, -1.2041138397777627, -0.49424035297262503, 0.411224221600965, -0.32864868980787865, -1.133340911413224, -2.0676321463569303, 0.7442104395604219, 0.6792924900199427, 1.2745984637165404, -1.0728232620385503, -0.11429725135473641, -0.9446943346970547, 0.4800565570235182, -0.39669560387750624, -0.38596966711491515, -1.3168847948211893, -0.6442155062387298, -0.07154029442144529, -1.0795524986215894, 1.299404889625505, -0.7149537322870505, 0.4427935546233962, 1.3605448169281467, -0.25028150930451637, 0.710644106272521, 0.08842939882702823, 0.7166430895703867, 1.718159535897077, -1.337354436804328, -2.1818259985313637, 0.9982765423369775, -0.5742250308185917, 1.0965835401517967, -0.16372405730196077, 1.829529108209315, 1.6239154309178634, -1.9282670938087643, 0.29542605155709367, -0.5376046012975875, -2.1833762314202714, 0.018542728905450702, -0.3646434744756687, -0.06774453171340176, 0.9802688560583396, -0.8704207089688045, 0.5358009948787871, -0.6487411805600083, 1.6056927691933431, -0.32919376371363535, 2.3949126946882826, 1.3876054085530802, -0.14440618828132218, -0.6779112766188075, -1.2307192717128916, 0.7196187102455459, -0.7380285844509311, -2.592746393062718, 0.5656182093801081, 0.5729154792931412, 0.3886011932917215, 0.18565463928608858, 0.33904105440587234, -1.8503035219896495, -0.33613170421756394, 0.9935689892370604, -0.186032866122292, 0.8280514985632074, -0.1724821498987323, -1.2932800322719538, 0.05508667167379567, 0.9821571976856444, -0.6488464401477622, -0.37028860922298545, -0.1669420999764757, 1.0092989624336832, -0.4474379226746747, -2.3325503771836855, -1.1270945445139127, 0.6964843113552373, 0.16431909475228204, -0.1905993268491737, 0.02168129243769054, 0.16128711909929153, 0.7691711034810318, 0.716892911741022, 1.3538252829700497, -0.0011816857987167297, 0.9247217765603711, 0.8894661686868947, -1.0527944152423068, 0.5719812464896494, -1.1801729991092316, 0.2910094547292955, 0.22654808298723877, 0.22142710384768505, -1.134206631935745, -0.6562951693218424, 2.2438955768681113, 0.01757463360889451, -0.7241867626357279, -0.02304721881684489, -0.14135400359446434, 0.7542227873479205, 1.7491277918934527, 0.6201329167103482, -0.9863092762771922, -0.05125100541688166, -1.0075663936104444, 1.4487056710101411, -1.217684356357267, -0.8470160696452711, -1.378875773097611, -0.3832983928089197, 0.43331400416020155, 0.19422658013777433, -0.923422664576982, -1.84475017608212, 1.1605953871880632, 0.22835116987406706, 0.8790365389264135, -1.1748422654811692, 1.0852642902875673, -0.08749631642009315, -0.21760623568098814, 0.1113325509747283, 0.6945729400160552, -0.2416741735195876, -0.30652185096276163, 0.8347483142065522, -1.44240909841023, 0.6742897912406809, -0.6376147318158584, 1.3674455714219946, 0.6776841690936962, 1.1540590710040448, -0.17823871598828941, 0.34434365972019987, -1.5415290801192207, -0.648190969246437, -0.2722209314574543, -1.2402856098040094, 0.27147366687929647, -0.9236392970254736, 0.12307745998839509, 0.8682891551645691, -1.001353787841165, -1.4962867868136744, 0.05527850659451799, -1.2194156032344048, -0.16875052372521152, 1.1088471174477847, -1.5481919938134403, 0.3730763287098733, -1.9355489111114785, 0.7451873419804033, -0.7484383947794132, 0.07292317562581785, 1.0848707095149988, 1.394101619355584, -0.19272239558169546, -1.459533976903641, -0.5161233392639691, -0.7930608551404154, -0.34284443674850446, -1.0985170823659574, -1.161569788977191, -0.3451118867920277, -0.29633831586854953, -1.0608949429696677, -0.843954248087089, 0.0937015809464021, 1.9323949551070745, -0.8022697708740091, -0.21817037093113364, -0.16559667574718487, 0.7954549466436267, -1.2139458226836048, -0.12425999196991308, -1.130963357989089, -1.6596347074158566, -0.9420611343469649, 0.3828747006797928, 0.20045751014313426, -0.008856983422813155, 0.5927177569977232, 0.024090558746946836, -0.7623108226366797, -1.222590928611327, -0.8187081095954611, -0.5649804517382264, 1.1399796085722607, 0.6536781940547585, -0.5062246670163597, -0.8604671836080796, 0.26494582270879347, 0.05610910041115603, -0.5603980549931725, -0.12467757142840237, 2.0610736003259986, 2.3767975360777225, 1.3763275669278392, 0.4451507983006536, 0.3104495524775822, -0.31145951497225044, -0.508389872210377, 0.20292667717820762, 0.031916947366565966, -0.13673904363596667, -1.1190578338124628, -0.9155411506564797, 0.29716381771311473, 0.4274963595336546, -0.5874285964880458, -1.1044497537173248, 0.7933175526412434, -0.21018213790520057, -0.12623825146567288, 0.39702767616074247, 0.23355678814298617, 0.6993084073510786, 0.9213219001815598, -0.07103514869315795, 2.58646488038701, 1.6886763722694975, 0.2695317585058486, 0.19852451317263947, 0.9162139091112241, 0.35285793856073794, -0.0478101855147153, 1.4365088144883678, 0.17112063751801143, 0.8602117371405494, 1.0806875068659032, -0.5002770341444912, 0.9315207511821618, 0.7134329453792425, -0.16010306519420042, 0.021407489191191873, -1.08984783681365, -0.4519875829920958, -0.1442670624843943, 0.43753895050245656, -1.3930360456172484, -0.3921713292635697, 0.615424222356436, -1.6315188104371061, 1.5714670651930243, 0.4254913916282797, 0.030863002166196564, 0.9923536034526006, -0.1960301075503852, 0.65050603365241, 1.950461207844479, 0.31056892493365285, 0.5314666193390744, 0.6650892475128626, 1.1723308242347323, 0.5450572737812491, 0.679141577679435, 1.3990436172844116, -0.5240845245168986, 0.28752996517400775, -0.3820490295506006, 0.17532730543722616, 0.22758298125340673, 0.8840636875008219, -0.23651569709944073, 2.474503117333017, -1.5212568267614712, -0.634471133937806, -0.8190142002247486, 0.5710529692551084, -0.4751680689005328, 0.5891396368361396, -0.10538197027997213, 0.710335984323174, -0.8713480412164701, 1.900795703386296, -1.3289917169426038, 1.9429260889562816, 0.3883859811032982, -1.374683346662057, -0.17112140401608955, 1.1528413203279613, 0.09430751116455502, 0.33096676150343585, 1.690774682893835, -0.040159142859436954, 0.7894953053389492, 0.6052823579363102, 0.6918116226796012, 1.8338105806824136, 0.6613381571052557, 0.5151085883208002, 2.395750480828774, 0.7239301392678991, 1.9327882150043496, -0.9608146063287718, 1.0386540611562534, -1.217051904539761, 0.7131573509245562, 2.2206000194338347, -0.9923503983821985, 0.3519062062277192, 0.9759479361491907, 0.11191471545467248, 1.0111866814696362, -0.44600860408295195, -2.463688082009634, 0.1897716400614887, 2.751717112663982, 0.11237491685794891, 1.0742048596378257, 0.9541453979972179, -1.2700582469191817, 0.8230919149553703, -1.0324193162455522, 0.17118849852824766, 0.021896663642126248, 0.7829419784674753, 1.1494548573076138, 0.047548297098557527, 1.2040933814828172, 0.33697545246742344, -0.758749320572503, -0.5675507317540623, 1.1297455845238074, -0.4060613687786753, 0.15118188175785194, 0.3221336157372637, -1.1054783283664782, -0.20009718312185037, 0.7457603851743182, 0.4214258266867171, -0.6416726003345036, -0.08382519109240509, -1.342873729772479, -0.76530311077731, -0.19726139606590867, 0.7064455397279902, -0.07697011104171002, -0.25969251986868375, -0.18945486519719562, 0.19312379631355023, -2.0630299873036586, -0.4614665435380008, -0.2334319935200075, 1.1494744196454443, -0.6093759321435259, 0.7683847413303568, -1.4972451205742432, 0.7352007586623862, 0.7188922143044603, -0.16886545127127048, -0.300901926950306, -2.9383195329466303, -3.046415242815023, -0.023819827907522816, 0.17484058395945867, 0.8093846745689703, -0.06755276193255794, 2.1662543215641414, 0.5090736844399535, 0.5110858175110963, 1.9998737869444003, -0.44215407570520543, -1.1569052554878156, 0.819557065290905, -1.1860064856447403, 0.8270526273033122, 0.2803941753558221, -0.9473903641065168, 0.4175835018989166, -0.5299281980759458, 0.38695667007179624, 0.9809904087933279, -1.8735786727197048, -2.6219816448449595, -1.640386462418991, -0.08224338061777953, -0.7494381411020864, -2.1663829294433663, 2.0980533560726324, 1.0292652883607651, 0.30568175677626447, -0.07478649011467067, -0.5768221797870231, 1.451333756316823, -0.22432197255554856, 0.42501936000679214, -0.4646933232038443, -0.09334794512358881, 0.24192856219000616, 0.3940540753979776, 1.0018145580040168, -0.5558745574166425, 0.7404647005804581, -0.17444962620373008, -0.860939275336776, -0.9647376945519683, -0.7458269861354093, -0.1585096114286265, -0.32401326535915614, -2.2472764676886174, 2.6511460309279236, -0.6839008126173887, 0.8808499995561331, -0.9609962241480977, 1.7123087564960342, 1.6329212179875736, 0.12259678138187956, 0.4729894942372793, 0.5542191631629031, -0.9705358969591187, 0.6756284640789971, -0.9678802744652099, 1.553773598829041, 0.021193297280211004, 0.35710743123559985, 0.7998787732612337, -0.8466897661608206, -1.1207424291829686, -0.4973221316717296, 0.2727762874482362, -1.0204611296105472, -1.0264423630103587, 0.7767238413501759, 1.598503657827224, -1.0380289933092435, 1.9736048456202333, -0.10262380703399002, -0.8702435854927868, 0.16425016307914916, -2.929044132946805, -0.8725658766609896, -0.9547313456087528, 1.5244157154782945, -0.7521189454396325, 0.10929305724600764, -1.6271492671518866, -0.10629929891825127, 0.9719936339195632, 0.44908817212417457, 1.4669874503453897, 0.18729949863532266, -0.39309767142516555, 1.6909629894516678, -0.9028005452267298, 1.0450819181357929, 0.7460810753324585, -0.5487501408842701, 0.28163888488662286, 1.13376011446812, -1.1953544119856354, 0.2823270039665354, -1.1803845481437873, 0.8401032011833577, 1.0970239563309057, -0.1159704508047528, 1.4215344477994483, -0.14566580658932557, -0.039884140716951844, 0.5049583092630582, -0.3296603533991908, -0.147769329926665, -0.5590202867246207, 0.6477514193962112, 1.215305462335063, 0.1652584756616157, 0.1546032922035383, -0.3527079435967675, -0.29993564548741175, 1.659821781248884, -0.6184060208180512, -0.21999578280736937, -0.5262207257587569, -0.6637480180435754, -0.8523860619558282, -1.1732350258576312, 0.518019864125261, -1.039800966177746, -0.8627015840754015, -0.9734655981156161, 0.580543976456952, 0.16437048974283208, 0.13314175669906558, -0.053637762210528094, 0.1641117229127694, -1.3390071688744418, 2.250169874754601, 1.0770999981219147, -0.4101927417747839, 0.5006090872176984, 0.7366128700786368, -0.6692014427357402, 0.5308259058427374, -0.2823426656549207, 1.4950607537020295, -0.07882582675315541, -1.0033996812970838, -0.5796932486482379, -3.0252793973649217, 0.3645806443740664, -1.4353990515552888, 1.204359877040531, 0.5343399612406037, 1.6452862316717638, 0.0850349281971735, -0.27577051853780016, 1.0535734346677248, 0.15504232896521045, 1.5176451997483793, 0.6530197658052705, -1.097091887067603, -1.3487053782254457, 1.638926108535652, 0.41861733087109376, -0.6170204187453782, -0.19594531287578493, -0.6312881453737067, 2.402666639325509, -1.0691997102079456, -1.9539162375623615, 0.1042000168055854, 0.10114459586140889, -0.9010377689139756, 0.12937457171917197, 0.37502890767690655, 0.4425555049136298, -1.0279866049031576, 1.0982673469565691, 0.9019144011501572, 2.9550786590069853, 1.369696070870245, 1.1551014761364922, -0.06294816836034378, 1.6387300227132389, -1.0374709495180001, -1.593336606413906, -0.8354111861796851, 0.9369929630662839, 0.714657641169062, -1.200675839417674, 0.0437480180486413, -1.0863553463561637, 0.7237337534153004, -1.0373792890390139, 0.7302523735565102, 1.6974905473485542, 0.871170408643859, -0.5276964350946773, -0.4284413226790949, 0.6166387754493294, -0.16257997529362334, 0.3404900508974771, 0.4971024020302397, 0.09289742991288236, 0.8459986238812567, 0.5186201559413606, -1.8688315139328313, -0.19990033628978635, 0.9823859083200395, -0.21642888217179218, 0.6520907005292595, -0.8187658085930083, 0.23960235265170804, 1.3085854633507636, 0.21718203089123306, -0.7198674516088424, -0.34144700204116135, 0.07243651672061814, 1.8195981077803116, -1.7063887041730508, 0.2110855490051856, 1.160677552364064, -0.8869010387476536, -1.9273668597640123, -0.38700899113190157, 0.47487693271715625, -0.19791778364032855, -0.8151348617020852, 0.19822667487239704, 0.7735729551322155, -0.8130703654699136, -0.7976437667131254, -0.9050644284290752, 0.10566118090452177, 2.1172469749362945, 0.002028349307945109, -0.6154998830553523, -0.8720753357949926, -0.28814621551417113, 1.0552420754324277, -1.3363187262763654, 0.4459796589366552, -0.6717301262138079, -0.7986201424725607, 0.348359761863889, 2.813874799823807, 0.25008169606184716, 0.3549324893905594, 0.07992381989847361, 0.046475968942426574, -0.7976737238696764, -0.7168217001468342, 1.0575690037952672, -0.02008496067151816, 0.24002774270861235, 0.8744704888663802, 0.29153487349513674, 1.5280907548635785, 0.06324971600715855, -0.5676049031577174, -0.1392111620039701, -0.9869053105052452, 0.10129975611444447, -0.23106488390290963, -0.002543142831796435, -1.0582007664451947, 0.1442774982165091, -0.4119894073445685, 0.11899246426143231, 0.4510255082251316, 0.30227349109867435, -1.0785138981446858, 1.1592002233643603, -1.118333473846901, 0.29184759364468993, -0.5082493238620261, -1.6332162803637154, -0.7275411477590753, -0.5294894036108674, 0.8549437018644791, 1.2245355693496311, 0.9112867328762989, 0.15047591644090627, -0.0798212266085731, -0.39218231093669165, 0.22809863608804437, 0.6955476422232455, -1.4756005396072414, 0.9589894999792958, 2.345368789154948, 1.6389710178933243, -0.6111942358164856, 0.5387846234169135, 0.2797710614537671, 0.5870131322139619, -0.2741085924949583, -0.3852816763301515, 1.9195992555730095, -0.6096942748947639, 0.050656430924769215, -0.2526045099468799, 1.166776001432759, 0.8808242116323228, -0.8698396049178349, -0.32904871848337175, 0.4199025832030743, 1.4050536922574517, -0.02270250223953066, 1.0773430752443083, 0.939558327307154, -0.6939952569234982, -0.44334020481944997, -1.481728453954883, -1.0479105454888566, 1.0101003729417632, 0.19184057461047038, 1.0990956636764537, -0.28308721830681005, 0.6800575720378803, -0.1871951071865181, 0.23715358332296907, -0.5117810627714967, 0.09535470779289128, 0.9012124236993931, -1.0617341307844985, -0.9178972178208149, 0.9622224473278209, -0.14630760958428218, 0.12579383776489864, -0.37368985098156676, -0.44855851973413685, -0.9553273693082978, -0.08455549951937974, -0.7502914712728798, 0.0845684620325486, 0.4936723733907599, -0.2347844692169657, 0.3421340156014865, -0.8107238886600557, 1.627035645386992, 0.25154992470022763, -0.2137206517753238, 0.7739395233203814, 1.0964848559635458, -1.0981128230518826, 0.6150222682783937, -2.542737333090358, 0.8724536997260937, 0.7850965732768672, 1.0090035711684173, 0.9539728543400618, -0.5331273315638341, 2.323694042668712, 0.6680138824014432, -1.114407110141563, 1.787936666084631, 1.8831041898146568, -1.3203092281157223, 0.500614175211195, 0.5373046937901467, -0.7237609081863553, 0.6469111713756066, -0.9899403264068899, 0.6660496187720244, 0.3284956864652381, 0.7449278439651464, -0.21790341992449078, 1.0036209853129145, 2.1014277949737736, -0.5822334732909713, -0.11577018401707198, 1.8422314860885796, 0.3136985758536602, -1.5154553873671988, -0.8848053883520576, -1.0362073059436, -0.7791330591811311, -0.147234536132137, -0.6640536565665323, -0.4006594995317842, -1.036568889823004, -0.37066770308901126, -0.5425768509325959, 0.9568734104770523, 0.49547845713940714, 0.31679930911121523, -0.4367656137977838, 1.298723417793986, -0.32624068870531303, -1.4312025907600638, -0.24138968840692565, 1.2728626960985814, -0.8435201652004294, 0.021370583336294314, -0.22178310012086203, 1.1087486851921118, -0.6875435146868398, -0.2909780065243253, -1.081821591189721, -0.42575030360515015, 0.13173979763273944, -1.0994501485141925, -1.6583617053176694, 1.204754218874236, 0.5502436345416719, -0.5386580004943378, 0.8207431456812834, 1.3898949436829293, -0.3289212039957624, 0.4099056081868193, 0.15995891439990254, 1.3159029258513024, -0.6658099719974722, 0.9558058282623506, 0.3871932728041922, 1.2990542636778672, -1.700013655760614, -0.3136324053317714, -0.44125225343546326, 1.0190085220316487, 1.87072064252541, -0.5338521391181762, 0.47519642849566074, 0.9244446783758086, 1.7992421252860729, 0.48783938473552163, -1.0034970159870293, -0.25615973147422905, -0.9795327479552863, -1.427808089499786, -0.9374615671673264, -1.0944880483369595, -0.27850717508670303, 0.06178095973021286, 0.11169813733751241, -1.2684188969216112, 0.11318593002257119, -0.7496977209673608, 0.2127042064520233, -0.625472259160785, -0.22551849006442268, -0.5641081351509832, -1.487051934160786, -0.9395626826847824, -0.9255277998770116, 1.6172752551890721, -1.0420927455301274, 1.9988905147712115, 0.09596970204324624, -0.21026786817560106, -0.08999543181544101, -2.1289634904564503, -1.4864774337134015, -0.07880887990650415, 0.7243532737780427, -0.3980678740173327, -0.1309626571905487, -1.5372194571791342, -2.0252114291647696, 1.0563947044530468, -1.4015007755842213, -0.64378589599831, -0.2506044423570965, -1.040262926143645, -0.025760097164940727, -0.5562358981490931, 0.6562534577259981, -0.13674530330245066, -1.8301343733216189, -0.9921071654351862, 1.2096148056877103, -0.8168263927514695, 0.021150537047577, -1.393861105606479, 0.7346854165839514, -1.639767648400054, 0.7006916619037632, 0.1518758905665416, 1.1552096181601748, 0.8953769783476991, -0.48185487288873285, 1.8811427885289975, 1.8852998735323159, 1.9209100712312153, 1.126847319310881, 0.47711070724695676, 1.7583804783751342, 0.6493333206183618, -0.9668569860029099, -0.3218982944844097, -0.946911310943304, 0.5276190332977501, 0.3270283190892381, 0.8851036381422417, 0.5974260151372578, 0.06953321023699435, 0.15323561684499837, 0.9658505789771954, -0.9082723173982462, -0.4875972101513419, -0.3028860862105758, -1.1052169268832241, 0.16967599085515553, 1.705661175343962, 0.45223634798332124, -0.6692718521193719, 1.278025883244848, 0.7495677911930234, -0.17533692169105747, -1.1717101273055281, -1.7372233415906744, 0.25146226688711276, 1.7424401669382572, 1.072844762586894, -1.429229590722156, -0.08001222984111188, 1.5626740080069323, 0.9112938006519985, -0.9266497795112282, 0.4284466780300036, 0.7534478073715519, 0.6818029315493778, 1.1685908944683228, -0.16169827501166226, -0.8859932233671607, 0.5242727744786158, 0.9206349148153801, 0.12432809621538997, -0.3240411094355153, -0.0758183984215368, -0.544837482708453, -1.0767153110705487, -0.6938932609589542, 1.294313284426838, 0.422855246006837, 1.9518377062405132, 0.1423805663620658, -0.7594468299828242, 1.1971882963863203, 0.9515497656607637, 0.23424269162753858, 0.23003673953366338, 0.31411566922023665, -1.0848560061444001, -0.698014287018676, 2.1728905530094056, -0.9890221272406144, 1.6638919395007783, -1.1777790386916398, -0.6122505823379951, -1.149923318662581, 0.0792009464792638, 0.4373920861047157, 0.07001979806287467, 1.0256988879389042, 0.511810755195112, 0.24405640661067915, -0.04823856945645477, -0.4304532781730673, -0.2246974370445095, 0.49915477305887973, -0.0025838269657721714, 2.156822255851838, 1.0305565339234162, 0.2255361507180184, -1.0303304529656854, 1.3744081604142613, 0.847179889916676, -0.29119060336518404, -0.610007518744554, 1.271852124259163, -0.40886765024245136, 0.058191003991108214, 0.2651892540636585, -0.48907569925503236, 1.7734886361049553, -1.1528486893421073, 0.6050386121814332, -0.21469290143984582, -0.8044465291179143, 0.08510279903850385, 0.29900672014279706, 1.4928739488104277, 1.2143291201290696, 1.1832712486451429, 0.32968082711627267, -0.7869743230130939, 0.6826851281469758, -0.31951372372517184, -0.24844291538379842, 0.4234826609001725, -0.9932858280340544, 1.8059628810529655, -0.27253475461656956, 0.9135997137297412, 0.3127395003100834, -1.0916154492230654, -0.4830660753540002, 0.24065820113329306, -0.024990697283943934, 1.5149517257871574, -1.489392278881907, 0.9463968052034601, 0.4148811792022439, -0.6826049534899309, 2.239264923208901, 0.9497985567020667, -1.6746223295308684, 1.4961495473478545, 0.21823913708305848, -0.07948524101325635, 0.8102377399048337, -1.2790736401963791, -1.6094569692833882, -1.6652818617118492, 0.5667529216237058, 0.07292927086755731, -1.6441739312836268, 0.6750997881912303, -0.5473581068477457, -0.512564560400172, 0.5667917168310069, -0.44082309397914704, -0.4252788619727091, -1.1473895090861586, -0.22251691447969485, 1.4444259425228878, 0.3536475323150809, 0.7935629196048807, 1.3056916457212868, -0.3536070552406796, -1.3700964603080719, 0.7943085863411481, 0.6889010533581451, -0.1328776302025026, -1.4928778323049923, -1.4632668432610092, 0.2378991482949895, -0.20975491128110818, 0.5609855958199169, -1.6580710298226171, 0.3032815229061825, -0.12082294986529259, 1.6116353226137845, -1.551750944064751, -0.7476436649619281, 0.4757663868006505, 0.16828745444627993, 0.17348972457330844, 0.156655793893814, -0.8252280518211058, 0.34121848941361965, -0.6696682403067312, -0.4057866171166429, -0.3046474010059303, 0.8670766265817801, -0.27854041023645126, 1.4295733385896232, -0.8204574910484569, 0.2689567170259526, 0.8438654112215577, 0.877534233237122, -0.5105085801949977, -0.09460203321932063, 1.1086022291299285, 1.9668491875645546, -0.6564051702371043, -0.4044835773048254, -1.2019024326067929, -0.1053492655488238, 0.8152115493507849, -0.17940606543973156, -1.5557076803067906, 1.0467057133557953, -2.3977337072356386, 1.1902039645083105, 0.44338334602822776, -1.1372982004949688, 0.1946839776420364, -0.7939263069950042, -0.21797217475542002, 0.28124807224459625, -0.07241106204419238, -0.4064102219573551, 0.777736930288746, -0.5669599285896206, -0.7402257096226721, 0.7510181051996291, 0.3967464657519668, -0.3194393662997725, 0.49712759268312434, -1.8886582866429447, -0.47290447431773047, -1.8827565199708185, -0.2685827950849988, 0.6852180700058451, -0.4155614381065359, -0.021298736420350316, 0.46579641119527293, -0.08754762299244986, -0.05734100572862381, 1.5895345424533933, 0.43650070871694147, -0.2103730003267862, -1.7922776082419956, 2.0490915486288817, 0.5712810895985201, 1.115480446595427, 0.5954701427878413, 1.3864271229675345, 0.9176373174667997, 0.3995797316796007, -1.5948431804156202, -1.0607806371588164, -1.0552457412601437, -1.441131837913698, 0.842160699899837, 1.352000405070279, -1.1976838161144392, -0.8104043610647743, -0.26143148011783685, -0.3196994707310027, 2.3289875138023954, 0.40462375305696124, 1.0288222064135497, -0.8552474992297333, -0.003681975075415034, -0.6079325964579391, -0.7884669312408584, 0.17417760109791428, -1.8268024428735299, -1.229253947316855, 2.539709234959737, -0.17873745811662275, -2.161984337986248, -1.4033500094764448, 1.0895359295451537, -1.5273406918585526, 0.18688725501109243, -0.2127397436853282, 1.6755919418462761, 0.3586384693482364, 0.45034635555709285, -0.451111812883511, -1.2875745486868593, -0.8206920266971385, -1.3724752979725556, 0.15828868910631066, 0.3629927295842038, -2.019862877882187, 2.249819950475364, 0.7282775030773143, -0.9753621037251489, -3.4044482355077306, -0.08074156904534081, -0.3066854489840439, 1.1010745879928237, -1.6179485722980471, -0.2766856702763432, -0.2166012494320651, 0.9286115192322498, -0.1749824504126272, 1.1811895245292763, 1.00144390788032, -0.28391067348110965, 0.3459347967427729, -1.2556530238390544, -0.22783825497602597, 2.2677189362133237, -0.13071113625405198, -1.2512098121489812, 0.6225775090131194, 0.6016746801453191, 1.789027406681512, 0.07532125169071162, -1.3612691488608741, -1.4299481428933323, -0.29419724553353704, 0.7501787019428696, -1.2923911400902628, -0.1538783293099626, -0.7066902587272208, 0.5067679652733867, 1.0907111171458286, 1.3749745848153943, -0.8386793283935984, -0.43041374236438895, 0.5953131056983815, 0.20057197350878653, -0.1555163999424103, -0.7008007301390587, -0.9056348021210511, 0.8108560262671654, -1.008156099256162, 0.8175135004236567, -0.08712937535077891, 2.165257944737624, 0.6365738240258497, 1.4163299745589712, 0.7832398918930799, -1.1338546589704364, -0.7164544479352173, -0.39391508586911006, 0.803399669897226, 0.8647983148512532, -2.6789098729756278, 0.29275364579530316, 0.915797466876427, -1.0295039544556013, 0.02504591647761137, -0.07087079660622578, -0.26325543763150155, -0.638593338440984, -1.0202151533623869, 0.6824904447833321, 0.5387753849331983, 0.22223994350750667, -0.7488894139642628, 1.2470984468436914, 0.03911462018478957, 0.09318288773952182, 1.038520918687913, -0.7830340051952555, -0.6477651696728628, 1.3561673753278025, 0.7303762192738807, -1.4136223143480267, -1.2821359896132956, 0.5994542039725014, 0.7824005749771197, -0.0526744983885894, 0.8118136532700201, 0.6416937447953963, 0.2660255881144918, -1.9210680323354368, -1.0055843207881943, -0.11089702271639743, 0.36676343709242276, 0.458554093504133, 0.503344825889989, 1.0791145063351424, 1.9965274859180164, 1.2560900140665405, -0.5833355460651882, 1.6200275273896114, 0.7133574304243617, 0.5138943877425586, -1.1462595286259105, -0.1505491281019695, -0.01050891346383711, -1.6494488999110937, -0.7083712574670681, -0.277063266139315, -0.12035522008326778, 0.6542638152283698, -0.07007277955071055, -0.47924757242508154, -1.3278869100605553, -0.4318066221853183, 0.04133428321509437, 0.09882096106524617, -0.41832221829127736, -0.23548403521316597, -0.9983781049851786, 0.38849675072851175, 1.286018544685164, 1.6714957200851097, -1.3825033939657358, -0.03277154329261115, 1.476848191007797, 1.2969778196165187, -0.6936297612135405, 0.13283497479868406, 0.19742303621479398, -0.8117512123366613, 0.025731174790281912, 0.11351978676805304, 0.333812142784775, -0.959252831242351, -0.7993044110431403, 0.7126757712854386, -0.5717596560521916, -0.6004030337370092, -1.7626254574728426, -1.5511173214012475, 0.3155291417076312, -1.0026694092387607, -0.8855294051371337, -0.46676800784533007, 0.9444829944494152, 0.8795073497758907, -1.1931778397270414, 1.3378902434657038, 1.3077842866727547, -2.0283116735113795, -0.09684583018390683, 0.7317963600012604, 0.7244230027813697, 0.04152031970704993, 0.052437257646771915, -0.610392023059437, 1.9293747960874694, -0.3382383568824227, 0.8373792385583797, 1.0265573490196411, -1.7895007777946585, 1.0843717640122426, -1.6579013851437563, -0.9127970787241687, -0.21804150742895226, -0.04650585731867365, -0.5173110217183281, 1.5351884875287365, -0.33983868458786226, -0.5037175865844349, 0.6844331565259577, -0.3223881686886247, -0.3799968737548253, -0.5527418474859962, -0.08630563772337851, -1.9433190819741681, -0.5253354666194018, 0.5312294799969169, -0.5868200886754771, -1.5498016497394018, 0.2610933193962338, -0.5752637732122257, 1.2810382687214374, 1.0000994061122241, -1.017075395780279, -0.04042006820508806, 0.5168907128562854, 0.44334457646049563, 0.7325251566904823, 0.5958040632183886, 1.1373014164681088, -0.39842864087368796, -0.9101327982990742, -0.6594926596333397, 0.052514846749580534, -0.5558319482633867, 0.6119504907305882, 1.3034990777345754, 0.37359268357240794, -1.9535907150905434, -1.4125559950872948, -0.12930525399932963, -0.47236786994614094, 0.31894028216452086, -0.6239460779203829, -0.7492211349971447, -0.6002338193580049, 0.008680730876297305, -1.040231776912453, -2.6322188063424417, -0.9053690661249525, -0.6552769576380048, -0.7440738604554228, -1.688739021201481, -1.8926128245750142, 0.08043879490161629, 1.1810987663172834, 0.29615180333214464, 0.5395271711807211, 1.0081944211621348, -0.20267393331754457, 0.27892815678458316, 0.12097285934330758, 1.3172529210307462, 0.15763861735673598, 0.8560487231463648, -0.3412169322403226, 0.6228114389880834, -1.2001426649313303, 1.2504433720124548, -2.021890533430445, -0.6276031791237116, -0.28873498133963793, 1.1688384593583314, 0.7587356486357486, -0.36023850807513, 0.680594727242453, -0.30485797594512865, 0.24271641300349758, 0.3399517890477911, -2.46906034432814, -0.3841200530092005, 0.5619018503227471, -0.8253088427101515, -0.6494505918595149, 0.6514835218415023, 0.4354524895178766, -0.20347181497126765, -0.4376840317015552, -0.872265177959398, 0.8672769417588316, 0.9929722452146211, 0.3239570643363424, -0.4102958002491738, 0.35458632901175285, -0.8333067423357423, -0.171081731132161, -0.12884219988767917, -1.213272004591583, 0.8706397746994916, 0.7747072032662602, -1.4655925275617718, -1.0951514259021284, 1.0740478263901476, -0.2377421083110954, -0.9425373002843527, -0.05659584740615924, -0.37826492166668924, 1.2580178751428526, -2.20204411533181, -0.292773709990773, 0.1132294160644916, 1.0500750866777477, -0.9229504341410604, -1.0468689187007247, 0.8589103837742531, 0.5304258287498229, 0.8153137105270319, 0.37883446274309396, 1.6730974510388863, -0.38935733472273487, -0.023605773924088313, -0.09946268523210268, 0.2481614361240981, 0.42749020651824954, 0.05196304374310324, 1.7191659505164691, -1.893327018949894, 3.1203467893828987, -0.07676919507599292, -0.7157242538608213, -0.5015981961970912, -0.9856093758395548, 0.12495846701734388, 0.49101093689849756, 0.7360537762170429, 0.6145123195328815, -0.019873358359357773, 0.6056448864403063, -0.11279003379398567, -0.7928051526313237, 0.23561516253533119, 0.3954580956705207, 0.6402024620257452, -0.2106368010325209, 1.0637975502584536, -0.6423776555253773, 0.09160703380079621, -0.6168844768644068, 0.5324864301299775, -0.8542175696858724, -0.15428845687619047, 0.9371257459077214, 0.9934268332091932, 0.1687769189393111, 1.4918774818819605, -0.5521977598141231, -0.10580657541878982, -0.26972847222212, -0.7379474315485761, -0.49318606711895574, 0.1103940871246157, -1.4739322433982611, 0.5407251652062512, 0.8553668706133198, 1.3599570392314935, 2.082370754650424, -0.3085102196701386, -0.7913898047058167, -0.7102609848419835, -0.03106919606969306, -1.3069010205131104, -1.4682199952799617, 0.8756988760544591, -0.9199589522940722, 0.31628792943005396, 1.098761355583184, -1.6897081846564819, 0.2856975460487533, 0.34406673575326124, -2.151340180226761, 0.6706031491562734, 0.1070887918045411, -2.169984980453906, -0.2735386781607947, -0.7758188305862722, 0.66722673676857, 1.044103595991226, 0.9825476241873161, -0.3678672316304418, 2.0672724144446817, -0.5157955637658551, -0.27977964022790247, -0.5288307390177895, -0.2618380271472887, 0.25456885790596934, 0.9920747673378, -0.43165916837597035, 1.9467118091069786, -0.25541198294416706, 0.019451238920487123, 1.5052505904988613, -0.6412884078186203, 1.4361710868795052, 0.5086686941918109, -1.59903760019149, -1.159272708779895, -0.20984552456706912, 1.240802741513538, 0.7685353837858173, 0.7388044920043315, 0.4104144583290437, -2.688720833165949, 1.1903601449701033, 0.2991194488837111, -0.47192156128209617, 1.7595025505694606, -0.16760505210184534, 0.39277807071922916, -0.6538079539325068, 1.2771579405909457, 1.5474586517461275, -0.43028883033715976, -0.7130364391840376, 2.3178214943977395, -0.42874745371878925, -0.36240774058579683, -0.6851518533967644, -0.33889833366205624, 0.4913456046891169, -1.0840697618930746, 0.4734813961036676, 0.3419262630412107, -0.7187773835733413, -0.41191991617147067, 0.6723031525517572, 1.4480335569451148, 2.1934089359959614, 0.6674659491827639, 0.2884342848190608, 0.5380607271046484, -0.5832738919658969, -0.69133174062742, -1.9766415488720868, -0.7837094823538301, -0.32899085723581883, -1.0478571698616934, -0.22336172889902872, 0.7782029976986529, -0.7088561673279079, 0.07278984201536184, 0.06029951200222641, -1.0656154733440817, 1.2499673885142506, -0.25136776461400184, -0.22289642033653853, -0.3312420155339978, -0.3547456082239965, -0.4478607649115733, 2.3978208741143536, -0.5706281065764606, 0.9753418301911279, -1.2039159552872238, -0.6935797757615622, -0.6259485138820001, -0.7373508946068652, -0.5854410412332688, -0.3151850054489342, -0.989676526258639, 0.6969276166762809, -2.2320652987841743, 1.3409013924765807, 0.004143814957819339, 0.013428887884199645, 0.1568079711592381, -0.3241572261510274, -0.9024973103030864, 0.665238117214333, -0.754054829240735, -0.34999519914018334, -0.7814445485142935, -0.877225877764671, 1.2780702289408636, -0.6255044435862555, -1.219179434729384, -1.177655648550642, 0.9373570792665817, 2.4817123770426854, -0.21261819533392604, 2.096391745909112, -0.96661428560787, -1.4174796718525793, 0.04771880979327095, 0.25697002039123895, 0.5277497985145004, 0.1542707623357305, -2.075608861870734, -1.7867657069935803, -0.9198646200102435, 0.818990499037911, 2.0886960069038505, 0.307287575036117, -0.5590317810873027, 0.008416002839995653, -0.3747125361135043, -0.8063164134962507, -0.6929358562217607, 1.2928102448454744, -0.3721519667018743, 0.6346892946139423, 0.12012896528266753, 0.5288809779847082, -0.03536372524631457, 0.24144890177253836, -0.8091325045392138, -0.46875560761857304, 0.012037873793477203, -0.2889129302923622, -0.547134933975003, 0.3644601841669632, 0.3391478174329041, -0.7565954672475526, -0.3379432196429521, 2.0841767331012715, -0.03289727740225901, -1.9177351410916423, -0.5703044763120811, 0.14143833409080314, -0.6366692444779695, -2.216679374737575, 1.6932829558540068, 0.845975757434482, 0.4952242768072827, -1.2577508154054944, -0.9591408168821851, -0.6634530542086148, -1.3594025797548626, 0.024641093048044564, 0.5660522643170992, 0.7802984068422667, -1.4193420995638697, 1.305752211993281, -0.8244345643524588, -0.160066721046746, -0.07501892698066633, -0.9956444660755314, -0.6318989618378696, -1.1395001360309251, -1.5209877744573128, -0.01159055411756524, -0.14444213792717064, -0.23164415399329435, 0.34884458595343654, 1.189864826169021, -0.9540552711880596, 0.08308623137337945, -0.8475221259642037, 1.6691873587700816, 1.2085807108548219, -0.5774625808034656, 2.6320236375178117, -0.26502815275616437, -0.026053598311964656, 0.21726494149096398, -0.6632135926141094, -0.06275084095549463, -0.3977034223472245, 0.9968639886857377, 1.0484682536770875, 0.25408860671988626, 0.3116100052041793, -0.626645495140166, -0.4020879445471558, -0.31901792923556066, -0.5964873668114049, -0.4351315283064374, -0.30198806561341623, -0.9044188921722188, -1.4873250503169917, -0.47647668960667483, -1.1383418938029644, 0.36419637500153884, -0.5581173563353884, -0.2579648137417061, -0.3334476545130512, 1.6380945175979762, -1.8321286060404063, 0.15412426334200785, -0.6576200253119235, 1.1279426248185895, 0.18258297425194878, -0.3592111351295189, -0.48259176576107427, -1.7170980274371546, 0.5942664143619514, -1.1583870349113583, -1.4675912831839244, -0.3622292449171552, -1.040928225959518, -0.44892617478937535, 0.7739992211061008, 1.2564310167237702, -0.052928948165596255, 0.6866361704345815, 2.073672123210153, -0.2214411873638783, -0.7065419903071481, -0.3715343088708027, 1.9552558978774788, 0.6291780068762248, -1.152683678292568, 0.20550470763182507, 1.16029105001019, -1.3913698600772242, 0.189772500896821, 1.4071125986635766, 0.8519199892662476, -0.4213105311197411, 0.951601644568377, -1.756892744157586, 1.271446548497761, 0.7597715439152218, 3.039172040803737, -0.3519352543225139, -0.322369636836736, 0.9542490586612066, 2.110716050506516, -1.1294894700387352, 1.0432565870506318, -1.7314031296007337, -1.770280020286654, 1.755462551103083, 0.4334254892435899, 0.3307757630134437, -0.33357609982306136, 0.8177213511172876, 0.37566302068447605, -0.17458329404439854, -1.0049329455091112, 0.18909535345711825, 9.686124820238062E-4, -0.2841315180106852, 0.046059683664988936, 1.6115114686940926, 0.5732400546175175, -1.2161072798089254, 0.45319739002117804, 0.5139527111314359, -0.9345490553040441, -1.3655930967525778, -0.8716321197552389, 1.0171294638149508, 0.6712718853013636, -0.16596389977529089, -0.35886476717233745, -0.024956218681592004, 0.42461525499022446, -0.5785481470174506, -0.01625034703552744, 0.14719354770247212, -0.3603907902402882, -0.3274433070187355, -0.39960943751367234, 0.958837737696287, 0.6089823975528496, -0.11332365660019812, 0.32180412416189363, 0.0943249743499485, -1.0991584324240813, 0.4587737050458088, 1.7062617102001512, -0.4343767834630603, 1.0200405744386716, -0.1011906662770977, -1.4181023400709671, -0.6747215628487268, -0.6714446161664609, 0.7507198511035011, 0.988881244402303, 0.341103966660348, -1.0735414854468894, 1.3161855031299434, -0.6224082907429576, -1.1699852218725364, 0.23963564002713103, -1.0906517751775837, 0.77643054351481, -1.719814805511199, 0.4812514653700201, -0.03216799574638798, -0.8658382923871014, 0.8595679981170506, -1.6305061445253672, -0.4433528535900727, -0.06971826613623593, -1.3992156852150586, 0.69254320831781, -0.32381398513194454, -0.5396127689157079, 0.020134866350842197, 0.2381815165764534, -0.7977175515809792, 0.24412431679376395, 0.09433034854215969, 0.3290205347863437, -1.4187381274364228, 0.9254253126884383, 1.4486998779661768, -0.8872837476892026, 0.013909516368335277, -0.45402498933020785, -0.4891238988499296, 0.5371926689963515, -0.3649371916623402, 0.9636822048476567, 0.9421543429513648, -1.3252670750146625, 0.8616983667114994, 1.0779120890533151, -0.30747037206378275, -1.2627769986226145, 0.9381620526396044, -1.386726030556295, -1.455903737329534, -0.15345235282430392, -0.026387849749189136, -2.292768708052621, 0.538812332915224, 0.4253969084250631, -0.9139525790789068, 2.0191072472479616, -0.7399622712239544, -0.7387819092363737, 2.0321717577155094, 0.04058876477176504, 0.2478572532604283, -0.399619695963735, 0.7504719162754148, 0.5389747835707566, -0.9895806681922182, 0.9408798791603749, 0.46547738291799423, 0.4250453468109868, -0.8800751985512525, 0.11520962444036832, -1.0928656240768089, 2.535904027942088, -0.09620407841881029, -0.2885099849320308, -1.7115279794315503, 0.6207509189700586, 0.956163296395496, 0.2930752932562571, -0.42093347269058207, 0.5336849882050728, -0.4919496964751837, 0.5031201806769716, 0.3476685081541102, -0.39007067722446626, -0.60013207686186, -2.5562587052400882, 0.9203108277202094, 0.9726432524286215, 0.4555580599718107, 1.084484713013816, 1.588204112708884, -0.1887988170033779, -0.23003310202488583, -0.03190144803832375, -0.15888254141252728, 0.917324194376289, -0.651382802610117, 0.796506707535885, 0.7833485416324429, 0.5272269569598504, 0.18852787943469518, 0.03469319641104738, 1.2947280250969022, 0.4831486962281198, -0.6700184140547127, -0.7198777211170644, -0.13798481739769367, -0.0051417816583169, -0.20529302745421865, 0.8623245076872901, 1.1345719659048297, -1.4785926557312306, -0.15887253831888182, 0.8279693508790743, 0.2621543412891243, -0.49549730726357133, 1.2259484251175068, -0.9894679938004217, 0.1321672399380944, 0.4126632857396581, 0.05664218617343089, 1.3318962923642725, 0.45898315835223263, -0.40304642441551375, -1.033570190114058, -1.3008243604129393, -0.060876287581630474, -0.7016695747845715, 0.15299101611170537, 1.3961239259835763, 0.021079513251161655, 0.3986992033802646, -0.6027140278769785, -1.0677477044531318, -0.48191871804975733, 0.1661407958717494, -1.18869777771125, 0.37904237365827675, -1.11615401565443, 1.0385403840899747, 0.43699230819829055, 0.5892158911631875, -0.42102825196178173, 0.3401380760005025, 0.762122674734296, 1.004783268672451, -0.9293140449196358, -0.6438990546540795, -1.1892814277700627, -1.070960786934694, -0.38832604473744536, -1.7687357732520146, -0.35347250652612794, 0.5819532632838348, -0.27493408115287676, -0.21945537376594096, 0.49782708369878054, 0.07560577246909347, -0.12268314994902414, -1.4178446852894886, 0.3247531405427768, -0.785397862921742, 0.6591853812832622, 0.7702192378629646, -0.915167414271332, -1.4466139118772232, -1.5367431818159447, 0.006277460273869595, -0.3193078943431174, -1.5787343757013546, 0.4920169618669411, 1.0507279090487531, -0.6485104262278757, 0.20752889386261938, 2.5453794470599114, 0.4865403044752113, 0.878744899813176, 1.0977043342599706, -0.9453974014696277, -0.0033872496384437633, 0.38774530818305997, -0.47741603949420175, -0.9256611190484163, -1.2486398363611373, 0.4607734720013012, 1.2573271923293663, -0.0752656840157961, -0.3160139153855648, 0.7966024782045503, 0.643681032696051, 1.586983548841824, 0.27607994332378816, 0.6141072772392391, -0.5138591957120225, -1.2313385677606048, 0.15035795582214176, -1.3239592871877783, -0.714477874962903, 1.0250747425859117, -0.49608894854718977, 1.6657160889062965, 1.383751281838445, -0.010825131528049545, 0.01343363078537302, -0.21767468089850708, -0.7693770136090434, -1.4032625775100882, 1.1196600177656089, 0.420353013186314, -0.6640284083381195, -1.02347931423593, -2.3633125882791957, 0.9235285533827952, 2.776620017747777, -1.2188624086544204, -0.7159615414410604, -0.25859083277050626, 0.7552113741247991, 0.8787139748891307, 1.2356623797337354, 1.6480616633431946, -0.7940164187214287, 1.7307813929281102, 0.2731840592379569, -0.0509384900506448, 0.673299280976884, -1.2228421546843897, -2.1309915466159164, -0.8343282506226541, -0.5125057009315147, 1.5388270965994708, -0.5000921837392555, -0.8961522494136767, 0.07439704842229926, 0.21255989577970894, 1.2127332908448774, -0.5979791164193581, 0.5720930204402956, -0.36712220153882363, 1.6953547985671005, -2.763895075956501, 0.09727395369025763, -1.8636643941625377, 0.4993533350920793, -1.7026794891109656, -0.44310461150773495, 0.9092253629291572, 0.6867722532500755, -1.1693528521225944, 0.054488179035041814, -0.03096891662359837, 1.3383622337931884, 0.5317352438016296, -1.4363694716931144, 0.8827595480157392, 0.4132212531217018, -2.013254725372179, -2.4745533261662063, -0.555447189323696, -1.4933576065444463, -1.2532217146551337, 1.2759247122752064, -0.2261998359473647, 1.2107861825875643, -0.6518429372911813, 0.8673392488348828, -0.7016246632181488, -0.7476520456010466, 0.4801675462707896, -0.7860455342711368, 1.8473421466740312, 1.5524158679771072, -0.027262773786208498, -0.23765501919078988, 0.08768007679203592, -0.8354619883949143, 0.05371990634328526, 1.289639558115448, 0.7119808633531324, -0.1759247908946734, -0.30257527818001895, -0.6719596877099202, -0.16901218346830824, -0.026926798954279612, 0.8984520364452716, 1.144940300672265, 0.3358143077023752, 0.6860379441204626, 0.22136620028644977, 0.7216291037086843, 0.4057551448540473, 0.7452243448844471, -0.017420829422561204, 0.9695129029738516, 0.5710556906315983, -0.3700200248522533, -1.3192428422627667, -0.5488065483548277, -0.3652103872479811, 1.4340816585628977, -1.1786104178723262, 0.43541443280554265, 0.743316759696025, -0.06894310373745019, -0.5049846106390755, 0.30577693862134364, -0.6880687109636956, -0.0664908550414053, 0.4999963987804927, -0.9304241138673744, 0.5287679964291788, -1.9970212202881656, -0.30525651957947786, -1.37798703025352, -0.5412563925013049, -0.04807739160049578, -1.1570714130171964, -0.27474264547039234, -0.38775556207296696, -1.4456651888292191, 1.262616766131537, 0.6717997018590647, 0.15663344312409141, -1.5543605800651445, -0.9328902617442385, -0.5342515975500174, -0.07381849409706658, -0.6696417416696296, 0.8602605329359296, 1.0217840971901742, -1.0980167440720416, 0.43865994006702924, -1.6333850895996571, 0.17468574008495852, 0.8983634024578021, -0.46788867781188515, -0.4869237753224174, -0.8001263839441148, -0.7058091732106585, -1.570883216927917, -0.8756536131522253, -1.2372938121315147, -0.7313577810377214, -0.3798473775627833, -0.466854636901676, -0.0378252601652759, -0.676103864630325, -0.4013314282409489, 0.315835846375844, 0.0659492741428114, 1.3763371749178488, -0.03691829873231963, 0.8216741664472754, 1.4886696977849576, -0.8417007292528773, -0.12300519761975989, -0.3809350184721856, -1.4151538970530486, -0.8686608808291113, 0.5289068158102644, -1.7209028691708637, 1.7264681151109489, -0.696366111188468, -0.38430979561807316, 1.2847877920322617, 0.5593747998137705, -0.615309082146557, 0.6819910268956466, 0.3741427517032337, 1.508912214582901, 0.731910060561318, 0.9123017170830205, -1.1258402904307379, 0.776795203467315, 0.5447581851820298, -0.8251106511392979, 0.2038110203502372, 0.658483468233778, 1.3738484677040252, 0.852677605837431, 1.4082849826469102, -0.71818939687747, 0.8942403119894439, 0.34324574464783664, 1.518500050469636, 0.6840913052580154, -0.3476053831493089, 1.0920365876003595, -0.7148898782795718, 1.900468393930929, -1.1033027694265505, 0.2157381954235568, 0.14789025134322376, -0.11470154961818012, 0.2309985881410072, -0.31628145288379705, -1.0681189645255231, 1.4768184009896421, 0.20252297132490357, -0.197602659118067, -0.8806613719285139, -2.0280467680171665, -0.4988476089633963, 1.2407629517687282, -0.678678037313466, 0.06946001468197796, -0.5847977762579704, 0.8736750013566658, 0.5531339469049318, 0.4253100155764317, 0.13306607597683046, -1.1736591462525556, -0.4600743025476318, -0.5670725344835457, -1.4002431793643217, -2.2574973190401737, 1.4010585528342725, -0.3802945102361878, -1.0441584372902375, -0.6829291999630538, -0.2258144397810624, 0.2090685461742227, -0.584413301218962, 0.4456006694003182, 0.6134051751001713, -0.9711397636218618, -1.882569195820634, 0.4722466904006583, -1.300572191102739, -1.1983056559369667, -0.07528271875067079, -1.4310378856948407, 0.8151447603799876, -1.7564026188347497, -0.6754923914574888, -1.3810801601078357, -0.14754559982391952, 1.2123637515737196, 2.036783395830896, -0.4130794306007328, 0.07851820927472569, 2.605372906461924, 0.5164703263650959, 1.4727902703940796, 0.2410371160611245, 1.7594266080677514, -0.318727077411964, -0.6900921005237382, -0.47338455932362067, 0.13122089171917606, 0.49966235465691833, -1.2941896672232027, 2.0666746166463588, 0.9830777630710689, 0.5660779940157782, -1.2489741138970158, -0.8853182706215265, 1.3767671237150247, 1.445632028961061, 3.0142948198083737, -0.12103432160986372, 0.16913628841898834, -0.07024835802643165, 0.027727355262602435, -0.6370099417188734, -2.061017152328292, -0.17294796642606378, -0.2850090311933776, -0.8693903282412859, -1.1451318434770046, 0.0027526180807110117, 0.27459000789837984, -0.6407353840247497, 2.342598153056766, -1.0925379495502807, 0.5070913679547793, -0.2971086429046299, 0.7229122519986436, 0.8885093196762184, 0.5881684511328047, -0.4771459000750711, 0.2914056676035442, 1.189497668818191, 0.49156515172956633, -1.6101316231340963, 1.066916135239322, -0.022454182895971696, 0.31708928509164486, 0.49901701223131534, -2.2923563908538838, 0.17375643419566755, 0.6044301262461051, 0.11950808436866053, -0.4980141192820645, -0.13195851793585284, 0.2064807607356992, -1.067852465220409, -0.008792027781376855, -0.351233940190847, -1.122232156312688, -0.5344827469814433, -1.3421962985075737, -0.43579368857069406, -0.3461574420908496, -1.4874648589206159, -0.2111807584173469, -0.7586303577207058, -1.0221619217835554, -0.4890237146908354, -1.0079054924545925, 0.5047021644407821, -0.5541109764012843, -1.5882227935658408, -1.3567002269250117, 1.1092989700897338, 0.927237405269813, -0.5458988948590984, -0.460740260131883, 0.021344720922864668, -1.7109922221244271, 0.17810571381469978, 1.2114050176328435, 0.8175653656695628, -0.4868496042153224, -0.407524265814549, 0.4078931861004655, 0.20498171930306172, 0.21902071826919184, 0.06668910017102982, -0.3719420981281703, -0.5877606292989482, 0.22886010693392378, -1.569406656716105, 0.12920110175647698, 1.2515363211969073, -0.8568875986980364, -0.6246801975284314, -0.18004088525694642, 0.6103347322364097, -0.5674596782275767, 0.5514449232793651, -1.9425048076109093, -0.13798273557547777, -0.807163461273996, 1.4639578549500336, -0.4707503113212753, 0.04023666055608588, 1.6880060384591948, 1.6854817162951035, 0.0466502828995656, 0.9066939564164346, 1.5913259105884092, -0.6417578405231401, 0.08454267377869222, 0.9326354483375767, -0.8888693185444267, 0.04610991187968333, 0.7184955233529181, 0.41267494966031154, -0.33026314832850945, -0.4131161873447599, -0.6490851047479649, -0.21455217979647415, 0.8245477892901549, -0.3034851200039504, -2.252079769768054, 0.5018854814588907, 1.8423944421499938, 1.8571633231362292, -0.4880137021660986, -0.32607514937321186, 0.9096210310620633, -1.035054977405034, 0.5179277295221931, 0.1579419040029024, -0.5729404485508456, -0.9745037500165616, 0.9422546549914727, -0.3285290284872734, 0.9151793577349616, 1.853651829967312, 2.4018525525292014, 0.9694192132628069, 0.20992200083208667, -0.019921060622465535, -0.19425806277912783, 0.14084853022269073, -0.6018998226033243, 0.12544133130268967, -0.5751659103214206, 0.7722803743068425, 1.2678904136403168, 0.94507327058685, 1.3259394298956846, 0.46274463252533676, 0.5073757828444793, -0.8729860042541536, 1.3066864329792078, 1.1310069092389619, 0.6121450774057384, 0.5236798275264825, 1.5125654213058113, -0.7635041538639871, 0.06638761012072683, 1.6824294842692258, -1.43057947848798, -0.4359078522311369, -0.2709440916779658, -0.47752437303715123, 0.8359123564806115, -1.1673024820670883, 1.6610414687230226, 0.56612463393961, 1.6837923015401646, -0.23376375931122323, -0.5821500340626615, -0.07893350926150917, -0.5503547079660434, -2.3706507412924522, 1.3781770119716206, -2.1538354391922696, 0.534559073092296, 0.20539934988329478, -1.3159138078858152, -1.6995363267819437, 0.24265260408093567, 0.0765760647083396, 1.171267728696321, -0.14139613295006503, -0.03055830639890783, 0.03506972146701305, -0.3377556526717632, -0.9393732664607369, -1.4695052637178019, -1.9816930169979068, -0.4119279028926329, 0.5321272413412756, -0.026972737363427847, 1.436576363323885, 0.2452715886950638, 0.16385321426704463, 0.32764740782729507, -0.0338833231369222, -1.1366697336750835, -0.0941087852096927, -1.351732876436045, -0.9062105201919307, 1.3406850122389418, 0.23127400858141953, -0.5992934277568419, 0.3707269203421522, -0.7183555900212598, -0.6098507342314947, -0.5241824798021499, 0.5996954119018395, 0.2673945308563341, 0.8378087760970885, -0.5004535714321312, -1.4576946040694672, -0.41945769251500864, 0.6386242577664931, -0.09865057832070957, 0.9288864810866274, 1.0254910625465368, -0.280080935456202, -0.11235723935844646, 0.15688584179963921, 0.7551993784870116, 1.6170478431956783, 1.4650017071881203, -0.9218491766925034, -0.45848163009338117, -0.8993362932155031, -0.48251889397923187, 0.04809005118176713, -0.6067745350048988, 0.34779697845683255, 0.004816400522075272, -0.22800343211187094, 0.28641855324087345, -0.7294425099417273, -2.1994161153564624, -0.021802030677796787, 0.574006010706822, -1.9543890744587566, -0.6376675042883662, 0.603126228444245, -0.3910654096624755, 0.3643189020660423, -0.9612183039826906, 0.09214604835257272, 0.12004393596783795, 0.007610385778976857, -0.12235530531522544, -0.9612609853813248, -0.20739908112352948, 0.6216735673538463, 1.187646444403515, -1.5238972590538404, -1.7618194855522415, 1.4649235249391739, 0.0761206285272148, -0.1733528155879938, 0.04420459352834664, -0.828606817272939, 0.2519270840527173, -0.03176805265338136, 0.9496374629253137, -1.114899532588474, -0.7819234004570054, -2.077228203816403, -0.3351303252172377, -1.0281766058931747, 0.8781491088113534, -0.3339921838981947, -0.17717609584635013, 0.20939055119126143, 0.5632701383752514, -0.2787357827942458, -1.253356369961986, 0.4860574018311834, 1.986623275969162, -0.4175438384092392, -1.2693923921088037, -0.0556466993522553, -1.2126260796158184, 0.6282014919193079, -0.7910761818717814, 1.6404054309406477, -0.5682719400581946, 1.9189478780566636, 0.15935819133544593, 1.0915511964247584, -0.9782001472671185, 1.1751874651660634, -0.22791875278354481, -1.6921925743677737, 2.251828828324108, 1.1169748725366142, 1.301027978975404, 0.5891789614089493, -1.2722541359130495, -0.026194493724000126, -0.44483429673091185, -0.3238092185137086, -0.9468081294275478, -1.7529771056467518, 1.640141798346417, -0.2371498654406434, -0.013501922352431433, -1.3675370570536185, -1.7313296653774648, -0.41416804182666445, 0.47182399763478045, -0.2380303664880657, -0.7858534667241566, 0.4524876259399728, -1.5089038496748817, -0.12059315912096383, -0.9932937516859951, 1.0091030098770675, -0.2774019510383106, -1.2871621552218508, 0.04580243814921286, 3.3265004619279273, -1.9019837270292574, 0.3483517053043549, 0.4407997620286563, -1.0479764133435192, 0.572667989745944, -0.646787819067582, -0.6279046000098093, 0.23724646410519334, -0.0439468629307322, -1.1463080718056675, 1.9264355078083042, 1.0202683359477631, -0.30996771178489774, -1.73094802648965, -1.2904691617927948, -0.21107758382073463, 0.39449452736663904, -0.39970612851145454, 1.9233255103192695, 2.1172137086989724, 0.27550886066313274, 0.10188472867137169, -0.8852802134528059, 0.08222198535021992, -0.7359578820650957, -1.2560250320773358, -0.7603957104690423, 1.2850914926169341, 1.2690574223852296, 1.8605680039918855, -1.281817709000279, -0.9985264877314344, -0.0066165636826548925, 1.8750404187801386, -1.8528015428744093, -1.421650208868294, -0.6104482081314127, 2.1165060069406647, -0.39548464642741477, -0.3487934322949315, -0.6221178200795413, 0.011738384161961359, 0.8330480471610023, 0.5030884352837228, 0.6992527680409513, -0.2609970375214436, -0.2292262819710325, 1.1386663933470247, 0.456012012338854, 0.06208042496303486, 0.1554869261403654, -1.2466429366609213, -0.6675513528359787, -0.3656872112309161, -0.46708961340063637, 0.4136374726259534, 0.9587629062686372, 0.45702473032100677, -0.19842603256707367, -0.5849316793157513, 0.09575038702233925, 1.3807695055132647, 1.360565621620369, -0.3007972605413525, 0.4057910302506346, -0.3685751061993607, 1.3887635563780878, -0.5941684757738502, -0.912890111910108, -0.5895080201101548, -0.8940003116557598, 1.4441830236322408, 0.8422808374878268, 0.2559081178354179, 0.06795894595703413, 0.42164041013905723, 0.7000834800206771, -0.07090390572586076, -0.11859133033790133, -1.2211931393488233, -1.4854227141015193, -0.6198990189763075, 0.8388851412615794, -1.0952136557177876, -0.985070633188325, -0.8004909235729926, -0.3019764204726741, 0.9145847705728469, 1.29053452703915, -0.6855631799931283, -0.15368907844791665, -0.43970916784930364, 0.6547757427894263, -1.843304561714256, 1.1852281123048207, -1.1951452003011296, 1.4770179901854175, -0.22038715080943852, 1.1783417819021968, -0.420416040227723, 0.0010846064098261677, -0.3452598764971482, 0.1396428748102344, 1.6781888677139976, -0.2166269823385565, 0.30274562927580556, -0.2329894694270515, 2.0144587835696113, -0.3165456387482547, 0.15692637175015933, 1.1947316212623098, -0.549337800317873, 1.2555875688160172, 0.5770330470997002, -0.5225389574581831, 1.7910373740610732, -0.3612015564167231, 1.5382526835494539, -0.3282407730749623, 0.16230023792369763, -0.4149356041942683, -0.38068353644886094, -1.0154582901784266, -0.43472813777719727, 0.33237724759522314, 1.617605912802013, -0.2630699442542117, -0.9281670316337118, -0.0344642817591789, 1.0059869874578755, 0.454888632009143, -1.13999344960306, -0.5407345153636387, 0.16384796260699291, 0.0982140989502831, 2.4519064371890034, -1.0546633710094553, 0.35735207321421547, -1.111420166529592, -1.2226998852997806, -0.31501375593212133, 1.0868044946283884, -1.6796262822890198, 0.37180922205490347, 0.43068979727354856, 0.379370792002446, -0.24886457667176887, -0.3047576855689791, -1.4547302628335004, 0.8158316328663456, 1.311874607077248, 0.6938039198476676, 0.8861138103965692, -0.8799042365402417, -1.4691706672379399, 0.717636450008315, -0.6011914709393124, 0.3245655296222492, -0.6303132730613954, 0.09736921368460008, -0.6494472908772361, -0.9853864399734917, 2.2864184080647303, -0.3163747885073997, -1.5745949413374538, -2.0188908373831644, -0.9882504280126128, -0.32976510745904375, 1.0122907075910565, -0.5292806546780169, -1.3475749228039375, 0.3294846335284781, 0.479052720357656, 1.0044749005795286, 0.23382806382632837, -0.31753012896571214, 1.2072485146123781, -0.31922596475016396, 0.2388347866525398, 0.188719816379944, -0.8045631372939628, -0.08660506418099208, 0.9891962873258334, -1.4778197156622697, -1.2292030293595244, 0.1760090034050603, 0.3772027435853338, 1.6435528539163786, 0.889822084464571, -0.1772928555435962, -0.025704931290694025, 0.3519876990283117, 0.15813098290436464, -0.4293517369643148, 0.5113564785751685, 1.5383630228376404, -0.32355988797027924, -0.024248981487646693, -0.8453726760241376, -0.7676178876337647, 1.3276802195561639, -1.729136507382673, 1.3245313617180294, -0.06094329464155601, 0.4275560474358511, 0.3300287556004666, -1.2185169005191363, 0.7262844162943874, 0.4222535934114175, -0.10303265777993326, -0.7704296436429188, 1.8758793688549547, -0.2999571480173653, 1.799109014406375, 0.8043722523573662, -1.0371703928178249, -1.7233512711495758, 0.2060521541929466, 0.8465705309677827, -0.7037546652057446, 1.275513545383869, -0.4025297054947527, 0.4831725010850379, -0.3016061771588648, -1.2246624347736368, 0.6562638051435, -0.7146527655324014, 0.23244796232863166, -3.2435057628034967, -1.0060438221199623, -0.009133469291768457, -1.289610836928757, -0.43631925933971155, 0.6139770385576613, -0.24758777697459158, -1.612013729401825, -0.13452494031107826, -0.8847681385848929, -0.24750778918870667, -0.45264238892380027, -2.4586799019321837, 1.4776572614543309, 1.463446280394458, 0.7052596584290071, 0.5881563003349349, -0.40144090456533615, -0.6748522009822092, 0.3558334626377606, -0.8127707827060233, 2.719806954253337, -0.6578990591946221, -0.6509318175128134, 1.2857483057210093, 0.056731254496615036, -0.5821749322768918, -0.42798938509671436, -1.9178615023352892, -1.36707557228922, 1.2115994300753676, 0.5157423566622433, 2.5670233281648365, 0.19137417079944757, 0.9639820501798764, -0.4897799075294996, -1.3398525989711823, -1.7911315303954254, 0.5602145298515989, -0.9052042147621541, 1.2259155880153305, -1.4282651042682835, 1.5062445606778598, -2.47027516965511, 0.17374415754105849, -0.3202957787013849, -0.26843003265351534, -0.0958426898020654, -1.0530177571728085, -0.41616413115329287, -0.4613094141992777, -1.2250517326353252, 0.476881254068878, -0.466087873063931, 0.22553662949864, 2.4942820798294023, 0.16661674202975935, 1.8517553274873866, 1.2537270198647978, -0.2499837225227852, -0.6169357692629482, -0.6917474104956767, -0.9413580411092854, 0.6149095638053301, -0.44840565499558804, -0.24962776672869175, -0.4068948238099454, -0.8975327806589279, 2.122396170841913, -0.3441577839822248, -0.2872432804317664, 0.640130842057961, -0.5656374354979722, 1.1483154975448928, -0.6595762787762215, -0.5876110978251474, -1.507083495805729, -0.7846230607189704, 2.0109734270862893, 0.8443042105938614, 1.1162147883907494, 0.45764071415310803, -0.906367095021125, 0.4844126243450241, -0.00697110346412964, -1.0167589686598257, -1.5302757014400339, -0.1783618241789139, -0.6307439195968263, 0.5422615287848116, 0.3362322486304152, 1.67581163655159, -0.4816353861514494, 0.21591096188926887, 2.1978302355867343, -0.47568910085389426, -1.1642093806782163, 2.5435575166893067, 1.6432704830752616, 1.226917178347413, -0.3300248629362305, -0.5535013670298113, -1.1816214276356745, 0.3189452902516673, 0.09793343121107632, -0.20798032568654876, -1.4951580566288194, 0.557184163041864, 0.3819501032934139, -0.37235974289646423, 0.7033846102119243, -0.37399448761715964, 0.2991051181432895, -1.3027450103117149, 0.341900791952819, -0.24006304203291415, 0.09160106901326379, 0.26480741166951527, 1.2196889082204618, -1.795795831367496, 0.5356745558180174, -1.2358330815035765, -0.6648038803273801, 0.4084035933744453, -0.10869722958291275, -1.1815544717820161, -0.0066478380700797065, 0.6920784876633177, -0.803696086313637, -1.1451351747015621, 1.6337616396340031, -0.2887419790088268, 0.6562239759080684, -0.007288969651037181, -0.8792686315788921, 1.0119278115201016, -0.9243940835605673, 0.9579776553822277, -0.2383103298467575, 0.5797720513058606, 1.2603430741227009, 0.11250006432828093, -1.9703527615533523, -1.0907452628252006, -0.049873200080899446, -0.13948078854877907, -0.8671832410911079, 0.6524841568773788, -0.8381857485099066, 0.45293327266020633, 0.626849693224233, -0.5653418944561751, -0.32968105782601625, 0.5648608242118707, 1.8251360101817982, -0.8716137984556018, 0.05943588194458176, 0.18673772950391476, -0.8151623325414787, 1.369933420919908, 1.1813020011403346, -0.09093136019637708, -0.9813844819480786, -0.9240674699308339, -0.3363931102256765, 1.1848178605668154, -1.627479939290293, 